Time_Common,Time_LeftAnkle,Abduction-Adduction_LeftAnkle,Internal-External Rotat_LeftAnkle,Flexion-Extension_LeftAnkle,Time_RightAnkle,Abduction-Adduction_RightAnkle,Internal-External Rotat_RightAnkle,Flexion-Extension_RightAnkle,Time_LeftKnee,Abduction-Adduction_LeftKnee,Internal-External Rotat_LeftKnee,Flexion-Extension_LeftKnee,Time_RightKnee,Abduction-Adduction_RightKnee,Internal-External Rotat_RightKnee,Flexion-Extension_RightKnee,Time_LeftHip,Abduction-Adduction_LeftHip,Internal-External Rotat_LeftHip,Flexion-Extension_LeftHip,Time_RightHip,Abduction-Adduction_RightHip,Internal-External Rotat_RightHip,Flexion-Extension_RightHip,Time_LeftShoulder,Abduction-Adduction_LeftShoulder,Internal-External Rotat_LeftShoulder,Flexion-Extension_LeftShoulder,Time_RightShoulder,Abduction-Adduction_RightShoulder,Internal-External Rotat_RightShoulder,Flexion-Extension_RightShoulder,Time_Pelvic,Abduction-Adduction_Pelvic,Internal-External Rotat_Pelvic,Flexion-Extension_Pelvic,Time_Trunk2Ground,Abduction-Adduction_Trunk2Ground,Internal-External Rotat_Trunk2Ground,Flexion-Extension_Trunk2Ground
110603,110603,1.780720444,-9.875690129,-1.502887674,110603,0.320610187,6.309776165,-0.744356966,110603,0.094672169,8.045130783,1.018800037,110603,-2.526197113,-5.852469969,1.751413084,110603,-0.090724326,-3.929967652,5.872853704,110603,-2.142918242,14.8056663,-1.797352134,110603,0.61870395,-27.66323848,2.410375478,110603,3.242207792,60.37640886,1.411218791,110603,0.609686205,9.366796334,5.066819111,110603,0.929352818,-128.208484,-89.45702043
110607,110607,1.809940099,-9.91274165,-1.537898287,110607,0.314066701,6.301665663,-0.743933933,110607,0.105536481,8.032548187,1.035523082,110607,-2.545169815,-5.847205284,1.74398741,110607,-0.11127259,-3.936208866,5.85703201,110607,-2.162978346,14.81476932,-1.803321761,110607,0.595601016,-27.64733971,2.385001734,110607,3.236417847,60.39886173,1.409534801,110607,0.608487164,9.36488435,5.049591722,110607,0.907407299,-128.2146283,-89.45848079
110611,110611,1.854527434,-9.957887199,-1.562834252,110611,0.300859995,6.29582965,-0.730283629,110611,0.105223179,8.013477077,1.05299509,110611,-2.568236509,-5.840244771,1.732126765,110611,-0.135651151,-3.938918727,5.844453222,110611,-2.17834361,14.82483424,-1.80463288,110611,0.578344627,-27.62720782,2.350295712,110611,3.232993672,60.42059034,1.405355699,110611,0.611228136,9.361442462,5.02536862,110611,0.884747802,-128.2206729,-89.46391348
110615,110615,1.893104305,-10.00146845,-1.595371774,110615,0.286810305,6.29204517,-0.713450127,110615,0.110317965,8.006374798,1.064404123,110615,-2.571756843,-5.845523351,1.717717093,110615,-0.163460869,-3.953571565,5.827201376,110615,-2.170610039,14.8451728,-1.809707448,110615,0.547160076,-27.61092069,2.315820117,110615,3.20972301,60.43768704,1.408035802,110615,0.604015718,9.358508871,5.003103576,110615,0.857336715,-128.2256122,-89.46250866
110619,110619,1.91372962,-10.04258616,-1.627782939,110619,0.283792892,6.298295115,-0.694951505,110619,0.123876319,8.00045087,1.077651245,110619,-2.564499499,-5.862250103,1.710071495,110619,-0.185571325,-3.967916238,5.809583285,110619,-2.158560022,14.86412604,-1.807945981,110619,0.520626267,-27.59503804,2.30305324,110619,3.188021156,60.45714658,1.421011364,110619,0.59886269,9.358054418,4.991285564,110619,0.840960681,-128.2321582,-89.45684028
110623,110623,1.906338551,-10.06358022,-1.645664989,110623,0.271982929,6.296424449,-0.68153586,110623,0.159480767,8.009516156,1.069251862,110623,-2.549353592,-5.877528547,1.701945632,110623,-0.206313786,-3.979169685,5.786541964,110623,-2.141739887,14.88127257,-1.809002972,110623,0.489036855,-27.5821823,2.294187781,110623,3.164441877,60.47685291,1.441111947,110623,0.589081862,9.356537751,4.980450811,110623,0.824427037,-128.2379939,-89.44733258
110627,110627,1.894514309,-10.08275732,-1.654641404,110627,0.262540605,6.293594315,-0.672475686,110627,0.199059318,8.019582898,1.061819197,110627,-2.549024088,-5.879728474,1.698993872,110627,-0.227805031,-3.989797184,5.769715846,110627,-2.139789961,14.88568285,-1.795234992,110627,0.456623277,-27.5670733,2.285712149,110627,3.134033637,60.49943995,1.461375398,110627,0.577754419,9.357923878,4.969058794,110627,0.808566018,-128.2466921,-89.43433703
110631,110631,1.886470737,-10.10093538,-1.659258055,110631,0.262220082,6.291522783,-0.65337236,110631,0.192934907,8.0049314,1.066957852,110631,-2.54169902,-5.883081298,1.690519049,110631,-0.216916176,-3.979439996,5.770836037,110631,-2.145458376,14.88414095,-1.780333897,110631,0.439056611,-27.54785918,2.280573935,110631,3.124358663,60.53896166,1.47387799,110631,0.58393211,9.369631174,4.954072467,110631,0.795232781,-128.2618878,-89.43018045
110635,110635,1.874703384,-10.12067064,-1.665623391,110635,0.258505937,6.279126839,-0.632620336,110635,0.186553841,7.988767271,1.068939338,110635,-2.541095087,-5.879136642,1.686846446,110635,-0.209066415,-3.970986907,5.767500401,110635,-2.152129843,14.88011656,-1.765262004,110635,0.420001237,-27.52847453,2.28006761,110635,3.114678604,60.57787239,1.488361251,110635,0.593769719,9.382908177,4.940510746,110635,0.782549315,-128.276948,-89.42649939
110639,110639,1.872301769,-10.13777584,-1.67451105,110639,0.266374016,6.273207164,-0.597317776,110639,0.161840779,7.965523817,1.085064934,110639,-2.531908109,-5.879812508,1.684648813,110639,-0.191590895,-3.961225993,5.766867972,110639,-2.149685328,14.8764626,-1.745226765,110639,0.405793886,-27.50968011,2.271737643,110639,3.112344541,60.61572926,1.496736403,110639,0.600802955,9.39385246,4.924011837,110639,0.771146148,-128.2901236,-89.42717866
110643,110643,1.886809683,-10.15523774,-1.67858333,110643,0.256816055,6.267459889,-0.57913445,110643,0.129353801,7.949410461,1.101630425,110643,-2.510038694,-5.890903185,1.67889767,110643,-0.172081929,-3.952216736,5.768901233,110643,-2.12643626,14.88944581,-1.736971013,110643,0.389356718,-27.49899638,2.264447313,110643,3.099519792,60.6445717,1.521113093,110643,0.597288207,9.391945275,4.916530161,110643,0.76073489,-128.2962088,-89.42171138
110647,110647,1.896645004,-10.17505022,-1.674401707,110647,0.22427727,6.256475406,-0.569370978,110647,0.098788999,7.933895217,1.109515873,110647,-2.500375376,-5.894944608,1.674198465,110647,-0.151358958,-3.944557088,5.774415368,110647,-2.105078392,14.90115313,-1.731161707,110647,0.378229637,-27.48820132,2.259289693,110647,3.085608351,60.67300952,1.547295191,110647,0.591812303,9.390615039,4.916616764,110647,0.750724957,-128.302419,-89.41374172
110651,110651,1.909118895,-10.20486158,-1.679822368,110651,0.191823679,6.246194389,-0.552184182,110651,0.078048423,7.915435221,1.116130701,110651,-2.506496721,-5.899121346,1.662330826,110651,-0.1361265,-3.938494972,5.773428642,110651,-2.092271961,14.91251512,-1.7219186,110651,0.361366772,-27.47594941,2.249645147,110651,3.064190641,60.70248831,1.572033774,110651,0.585262373,9.390808487,4.912269904,110651,0.737175782,-128.309801,-89.40401797
110655,110655,1.923514862,-10.23290448,-1.693071096,110655,0.15887457,6.238867222,-0.53193201,110655,0.063077001,7.89870482,1.12353053,110655,-2.523815393,-5.898061638,1.655981242,110655,-0.129509635,-3.934758901,5.765753997,110655,-2.086664629,14.91681948,-1.704283336,110655,0.342479549,-27.46180564,2.23754464,110655,3.045570131,60.73164611,1.59564999,110655,0.578213166,9.3931111,4.904606724,110655,0.723491217,-128.3185111,-89.39466398
110659,110659,1.935152405,-10.25845297,-1.698072017,110659,0.123921674,6.235480846,-0.518895272,110659,0.056229133,7.88326048,1.132431308,110659,-2.544278673,-5.899123433,1.656272285,110659,-0.124018419,-3.931038833,5.76635586,110659,-2.080494198,14.92219878,-1.687760488,110659,0.329088346,-27.44542944,2.225006821,110659,3.029324561,60.76207577,1.616386388,110659,0.572617001,9.397378864,4.89689072,110659,0.710754594,-128.3298883,-89.39031183
110663,110663,1.948454953,-10.28916372,-1.699825799,110663,0.11763799,6.24299564,-0.495523952,110663,0.043018892,7.866152334,1.133248954,110663,-2.551587712,-5.909624853,1.653446648,110663,-0.107012083,-3.928055587,5.758168911,110663,-2.076333192,14.9260465,-1.66539174,110663,0.316460003,-27.43049284,2.210916058,110663,3.016344689,60.78806924,1.640707204,110663,0.570469482,9.399340881,4.887453293,110663,0.701690632,-128.33926,-89.39050586
110667,110667,1.952044674,-10.31645662,-1.703369713,110667,0.110929898,6.257056372,-0.473380886,110667,0.042538205,7.849580408,1.134701095,110667,-2.551363747,-5.921726328,1.649884487,110667,-0.099309295,-3.925914962,5.744045102,110667,-2.074195931,14.92830511,-1.641988679,110667,0.309676822,-27.41038227,2.193272328,110667,2.998468263,60.80961562,1.66827878,110667,0.568138458,9.40207077,4.879368137,110667,0.694384465,-128.3480885,-89.38563691
110671,110671,1.956572898,-10.34419249,-1.703531293,110671,0.110145994,6.272386447,-0.454734953,110671,0.050166081,7.837740654,1.133651798,110671,-2.527632158,-5.953557554,1.635780259,110671,-0.105445449,-3.930973109,5.733005661,110671,-2.055385295,14.94609295,-1.630741086,110671,0.298723469,-27.39851465,2.183363904,110671,2.977974129,60.8215522,1.692646319,110671,0.56261639,9.398097606,4.876269526,110671,0.688108779,-128.3481035,-89.372658
110675,110675,1.959178328,-10.37131979,-1.708987059,110675,0.100844971,6.280223676,-0.442384118,110675,0.056637846,7.826364248,1.131287213,110675,-2.510917395,-5.97649859,1.627245169,110675,-0.108524963,-3.93590093,5.718612976,110675,-2.033392147,14.96262973,-1.621128071,110675,0.279381176,-27.38704438,2.173857687,110675,2.952264865,60.83179412,1.717738763,110675,0.558055967,9.39426851,4.875073731,110675,0.683693922,-128.3485323,-89.36020728
110679,110679,1.946319853,-10.39246643,-1.716391904,110679,0.095106828,6.284678269,-0.427663987,110679,0.079692714,7.821569776,1.128724324,110679,-2.493816571,-5.998898603,1.624351693,110679,-0.117597362,-3.939752914,5.701845224,110679,-2.013181787,14.97931348,-1.606780176,110679,0.254761884,-27.38469927,2.170498521,110679,2.930186687,60.84080644,1.741590792,110679,0.555494945,9.391851957,4.870601007,110679,0.679574641,-128.3507932,-89.3488823
110683,110683,1.93345568,-10.41375027,-1.725286524,110683,0.084827334,6.292384571,-0.404723424,110683,0.101448529,7.815433597,1.131664953,110683,-2.505194841,-6.000234058,1.631220231,110683,-0.12448979,-3.944831056,5.68665397,110683,-2.016005209,14.97353907,-1.573486629,110683,0.229904799,-27.38272592,2.174179005,110683,2.912711617,60.84892272,1.766385278,110683,0.550264585,9.39159864,4.863724725,110683,0.675230148,-128.3531293,-89.3351314
110687,110687,1.93140347,-10.43482778,-1.726593132,110687,0.078901833,6.301165648,-0.388648433,110687,0.123812642,7.825857303,1.120162225,110687,-2.513213652,-6.001691363,1.633724862,110687,-0.144616836,-3.967674781,5.665534085,110687,-2.017121804,14.96607236,-1.54800901,110687,0.206350015,-27.38401305,2.173399056,110687,2.895597526,60.84925173,1.792661722,110687,0.55161321,9.389725561,4.856153993,110687,0.672318125,-128.3538817,-89.32699083
110691,110691,1.914355561,-10.45250257,-1.728629738,110691,0.076722258,6.317628087,-0.381630179,110691,0.161111831,7.838814241,1.114542933,110691,-2.504503312,-6.009332773,1.64329049,110691,-0.160110767,-3.989032555,5.648061772,110691,-2.012253795,14.9580313,-1.517545357,110691,0.18655646,-27.38555686,2.170399694,110691,2.8790974,60.84814198,1.812494424,110691,0.549189891,9.387301412,4.847273927,110691,0.668557432,-128.3544071,-89.31878648
110695,110695,1.881168358,-10.46444661,-1.736794835,110695,0.078284499,6.331908546,-0.376400596,110695,0.195157884,7.849702562,1.115584682,110695,-2.49126573,-6.016566388,1.65197112,110695,-0.173222502,-4.009180085,5.632442056,110695,-2.010747648,14.94964311,-1.489289432,110695,0.157772906,-27.39694183,2.17812878,110695,2.862141066,60.84367079,1.822982255,110695,0.549006121,9.384463817,4.841664003,110695,0.666435776,-128.3548588,-89.30787419
110699,110699,1.861261349,-10.47896786,-1.741010469,110699,0.085891733,6.347561771,-0.368891673,110699,0.216196002,7.853405863,1.119214528,110699,-2.473843839,-6.025331953,1.659467683,110699,-0.171720241,-4.015576004,5.625419595,110699,-1.999870593,14.95123105,-1.471170915,110699,0.130247543,-27.40871771,2.176520565,110699,2.844618081,60.83996448,1.831090031,110699,0.541562923,9.374932199,4.839972095,110699,0.66204668,-128.3560699,-89.29583062
110703,110703,1.86034974,-10.49491631,-1.7625105,110703,0.094469852,6.358035435,-0.361739515,110703,0.224730938,7.855761046,1.131655225,110703,-2.46596033,-6.030131348,1.662680561,110703,-0.164352696,-4.024106784,5.613183,110703,-1.992731212,14.95158024,-1.458219427,110703,0.102283692,-27.42191295,2.176033994,110703,2.824542399,60.83451099,1.83442886,110703,0.528438092,9.366409782,4.837449556,110703,0.654017552,-128.3563309,-89.28288912
110707,110707,1.873125183,-10.5170548,-1.775119864,110707,0.09467516,6.364133039,-0.355930456,110707,0.232294694,7.857995408,1.142361617,110707,-2.454689111,-6.032604851,1.666314486,110707,-0.156861099,-4.032955451,5.603029417,110707,-1.982279435,14.95046935,-1.446106689,110707,0.098407239,-27.42478862,2.168866853,110707,2.811776077,60.82989029,1.83140236,110707,0.517496502,9.358358702,4.833109834,110707,0.645937338,-128.3576311,-89.27265534
110711,110711,1.888664638,-10.53830427,-1.784512551,110711,0.086082116,6.371148938,-0.361271996,110711,0.246649239,7.861733126,1.147346319,110711,-2.450090375,-6.038640827,1.676339186,110711,-0.156075747,-4.039554782,5.586753715,110711,-1.975308633,14.95519487,-1.432968342,110711,0.099190673,-27.4279136,2.15849564,110711,2.804253787,60.82505321,1.829524663,110711,0.510223118,9.349065687,4.828873298,110711,0.640461993,-128.3598448,-89.26337818
110715,110715,1.900134187,-10.55819941,-1.795312528,110715,0.083207766,6.377860773,-0.373691869,110715,0.232521595,7.847395122,1.161307379,110715,-2.442183671,-6.042777318,1.687724031,110715,-0.135062687,-4.026140082,5.577747034,110715,-1.972704736,14.9605365,-1.420102305,110715,0.110409663,-27.42427938,2.135640309,110715,2.790563002,60.81125098,1.837623251,110715,0.51498207,9.344529196,4.816069801,110715,0.634013996,-128.3684022,-89.2681986
110719,110719,1.917918017,-10.58508824,-1.820455793,110719,0.087580781,6.383479733,-0.376266951,110719,0.216551317,7.82659098,1.184598201,110719,-2.447162914,-6.040588246,1.702232343,110719,-0.119807985,-4.013153518,5.572140093,110719,-1.973223945,14.96656933,-1.409190103,110719,0.120002256,-27.42112373,2.114834709,110719,2.776075593,60.79639084,1.846779647,110719,0.513378287,9.338493882,4.810064639,110719,0.627822499,-128.3753495,-89.26821763
110723,110723,1.930293192,-10.60507237,-1.84679879,110723,0.089157101,6.383408734,-0.383177411,110723,0.203460579,7.80825107,1.209426193,110723,-2.459570499,-6.030704679,1.717657329,110723,-0.111868658,-4.001484448,5.563115565,110723,-1.984162984,14.97093434,-1.398262084,110723,0.128065774,-27.41348445,2.09870553,110723,2.759871538,60.78250286,1.86250978,110723,0.511823972,9.333893038,4.807926625,110723,0.623549381,-128.38389,-89.26297684
110727,110727,1.934382778,-10.62160375,-1.866628858,110727,0.093619459,6.383612013,-0.392511589,110727,0.217757277,7.805163967,1.218956407,110727,-2.476840541,-6.020904328,1.732947124,110727,-0.140471636,-4.012086517,5.540519597,110727,-2.012932102,14.96881585,-1.384715036,110727,0.138951123,-27.40829513,2.085456456,110727,2.763340582,60.78556425,1.853558992,110727,0.519626134,9.331506482,4.80265049,110727,0.619224177,-128.3879888,-89.25430022
110731,110731,1.941667978,-10.63594439,-1.879696288,110731,0.105343533,6.392398082,-0.391522155,110731,0.232151768,7.803787586,1.223196501,110731,-2.471825469,-6.019370418,1.742964177,110731,-0.168187755,-4.022542882,5.516599905,110731,-2.032369275,14.96628252,-1.368251886,110731,0.139254656,-27.39822985,2.075913595,110731,2.757082486,60.79112677,1.851544872,110731,0.517943948,9.330974503,4.797919676,110731,0.611066561,-128.3932676,-89.23806827
110735,110735,1.948273262,-10.6524853,-1.892731177,110735,0.123957747,6.403947692,-0.391582276,110735,0.257584794,7.801191232,1.227279112,110735,-2.465014724,-6.017521067,1.753921465,110735,-0.198672474,-4.032998782,5.493808269,110735,-2.046610662,14.96410802,-1.353169749,110735,0.153206085,-27.37861089,2.055999945,110735,2.759463254,60.79780123,1.840599195,110735,0.51865199,9.33132338,4.788593157,110735,0.602079114,-128.3995475,-89.22732617
110739,110739,1.949120327,-10.66891386,-1.904583622,110739,0.139824707,6.415824158,-0.390508018,110739,0.299706374,7.808678164,1.221355011,110739,-2.449182444,-6.02423675,1.761606525,110739,-0.240325869,-4.05361656,5.462094443,110739,-2.048747092,14.96951768,-1.341386429,110739,0.178647389,-27.34368012,2.025768873,110739,2.770040735,60.81893371,1.822020716,110739,0.53641835,9.344988575,4.768866587,110739,0.594079852,-128.4195549,-89.23237312
110743,110743,1.958789141,-10.68659403,-1.932375705,110743,0.14463047,6.427632316,-0.385585944,110743,0.325761954,7.814150778,1.23385671,110743,-2.434934743,-6.029341145,1.762715373,110743,-0.273306185,-4.072314239,5.436032739,110743,-2.046270094,14.97408819,-1.331300494,110743,0.190943225,-27.30457017,2.003856801,110743,2.769115956,60.83298331,1.815345919,110743,0.551125455,9.36041324,4.751044519,110743,0.586720288,-128.4411205,-89.23526743
110747,110747,1.912195855,-10.66693946,-1.942121462,110747,0.136348141,6.424734231,-0.38810659,110747,0.388075205,7.853439784,1.21832646,110747,-2.42233576,-6.033269766,1.765381252,110747,-0.294763315,-4.090435287,5.408409881,110747,-2.041665678,14.9797822,-1.321882164,110747,0.205839882,-27.26295363,1.979268192,110747,2.769579478,60.84845814,1.803711738,110747,0.564286327,9.377118917,4.732316729,110747,0.577996478,-128.463121,-89.23956138
110751,110751,1.850896698,-10.64286736,-1.959772297,110751,0.117922228,6.423235354,-0.390951514,110751,0.444893981,7.892722834,1.20338683,110751,-2.434058884,-6.01876886,1.775549286,110751,-0.306138938,-4.107170502,5.37600737,110751,-2.058330723,14.96758221,-1.300542434,110751,0.216364689,-27.2230384,1.953878824,110751,2.763581963,60.86352493,1.786482267,110751,0.578427476,9.392941611,4.713305579,110751,0.5679182,-128.4852893,-89.24494149
110755,110755,1.789342974,-10.61971468,-1.971134987,110755,0.105217757,6.422367885,-0.387777654,110755,0.482991883,7.915949718,1.202157384,110755,-2.448972927,-6.004407169,1.786991358,110755,-0.288339242,-4.100469069,5.358004141,110755,-2.067442437,14.96073581,-1.273295174,110755,0.214716327,-27.19414309,1.935251579,110755,2.728708877,60.85591962,1.791673373,110755,0.572646476,9.390405005,4.708497399,110755,0.561319353,-128.4940526,-89.23598679
110759,110759,1.730953135,-10.59527727,-1.980138478,110759,0.094810289,6.420796685,-0.384920053,110759,0.511573615,7.939342203,1.206665183,110759,-2.461461671,-5.98839852,1.801175502,110759,-0.266051636,-4.092107418,5.349373169,110759,-2.076056036,14.95312628,-1.251383565,110759,0.20346637,-27.16008668,1.911612682,110759,2.696894455,60.84993508,1.792408021,110759,0.566335326,9.388096006,4.705411053,110759,0.551722226,-128.5034438,-89.22529028
110763,110763,1.733434132,-10.60572376,-2.003175615,110763,0.092691706,6.422615395,-0.371754023,110763,0.497450305,7.938476333,1.220235354,110763,-2.470338473,-5.971155546,1.808118202,110763,-0.248659385,-4.084292319,5.333272812,110763,-2.082383994,14.94403777,-1.230655304,110763,0.191744066,-27.12530583,1.879486202,110763,2.665055378,60.84707466,1.792087293,110763,0.562608057,9.387052873,4.698320301,110763,0.542083743,-128.5144261,-89.21880156
110767,110767,1.733509556,-10.61336624,-2.023564785,110767,0.086588418,6.425305856,-0.358868362,110767,0.476721436,7.931607931,1.234851013,110767,-2.459814686,-5.973285686,1.799457832,110767,-0.21941326,-4.067486077,5.317037956,110767,-2.069290827,14.95301079,-1.221052087,110767,0.182973021,-27.07964532,1.852352654,110767,2.649080479,60.85517021,1.794066869,110767,0.562624711,9.395539871,4.691027884,110767,0.540309339,-128.5357596,-89.21490698
110771,110771,1.7383397,-10.62218356,-2.030117122,110771,0.080993936,6.427290549,-0.346772741,110771,0.453996746,7.924451879,1.235292468,110771,-2.45099393,-5.976668406,1.797586586,110771,-0.19231085,-4.050806709,5.303129728,110771,-2.057454819,14.96362048,-1.211632509,110771,0.171419662,-27.033385,1.816340165,110771,2.647774139,60.88421068,1.768804929,110771,0.563338449,9.404295122,4.682069309,110771,0.534920414,-128.5571991,-89.21505438
110775,110775,1.753359933,-10.63520083,-2.034734285,110775,0.071224484,6.428009135,-0.333050006,110775,0.42839648,7.912878761,1.235097549,110775,-2.440311597,-5.9800058,1.791777014,110775,-0.175810151,-4.035662816,5.288678659,110775,-2.047546679,14.97295857,-1.202828572,110775,0.154816555,-26.98910609,1.78063489,110775,2.646906148,60.91193677,1.744833807,110775,0.568142247,9.411660342,4.67244501,110775,0.528673815,-128.5768509,-89.2177143
110779,110779,1.75506535,-10.63997179,-2.034532728,110779,0.060497369,6.426663405,-0.324874072,110779,0.401050142,7.901032835,1.228486878,110779,-2.457014118,-5.963285775,1.804649366,110779,-0.157638071,-4.019106219,5.268236139,110779,-2.060957173,14.96635056,-1.169475346,110779,0.133647939,-26.95322988,1.749199048,110779,2.650818603,60.93782616,1.723687949,110779,0.575112207,9.415075856,4.658473362,110779,0.524951629,-128.5938878,-89.22105493
110783,110783,1.752195361,-10.64428382,-2.0266,110783,0.046262541,6.424728941,-0.307319948,110783,0.389262878,7.899644204,1.215845828,110783,-2.468410177,-5.945907682,1.806613607,110783,-0.152780402,-4.013218485,5.249927174,110783,-2.065472567,14.95823296,-1.141681943,110783,0.10491797,-26.91951341,1.713226979,110783,2.648123841,60.95870353,1.712923106,110783,0.578206583,9.418166909,4.652113038,110783,0.523910615,-128.6095703,-89.22117839
110787,110787,1.75117016,-10.64652537,-2.012303056,110787,0.034685766,6.424327918,-0.294364637,110787,0.368419962,7.899119282,1.199749003,110787,-2.4773824,-5.92721389,1.80713378,110787,-0.144110402,-4.00801331,5.231602755,110787,-2.071702681,14.94705106,-1.113937634,110787,0.072759197,-26.8908412,1.685749568,110787,2.645537446,60.97975173,1.701477244,110787,0.58446361,9.421044424,4.642290504,110787,0.520959584,-128.624595,-89.22354621
110791,110791,1.739360051,-10.63489277,-1.986569212,110791,0.019776272,6.426772418,-0.280747812,110791,0.364604018,7.916220185,1.170923452,110791,-2.490452758,-5.910429326,1.809520931,110791,-0.14034767,-4.00423347,5.214600345,110791,-2.075489321,14.93568375,-1.083077834,110791,0.051098394,-26.86093436,1.646819224,110791,2.647930294,60.99795452,1.687510522,110791,0.593482886,9.421325819,4.627599059,110791,0.518049415,-128.6364807,-89.23178878
110795,110795,1.727934137,-10.6277201,-1.96363774,110795,0.009286829,6.43188297,-0.260698954,110795,0.366745419,7.929603844,1.147479436,110795,-2.475958525,-5.912447929,1.800892503,110795,-0.141736742,-3.997637169,5.205637814,110795,-2.056005141,14.9423562,-1.065622861,110795,0.022086295,-26.83770357,1.607771648,110795,2.649959511,61.01140808,1.664776683,110795,0.595617558,9.414641267,4.616021052,110795,0.513931858,-128.6442096,-89.23586353
110799,110799,1.715157488,-10.62031659,-1.945874041,110799,0.003857634,6.438000053,-0.236709817,110799,0.371886446,7.94379186,1.129076749,110799,-2.47397004,-5.915733754,1.786686398,110799,-0.144068006,-3.993862798,5.198918612,110799,-2.049458517,14.94884832,-1.049797245,110799,-0.006127471,-26.81675474,1.564919536,110799,2.638681147,61.01694263,1.649683885,110799,0.599717374,9.407538113,4.598644802,110799,0.505469742,-128.6501225,-89.24543875
110803,110803,1.730201918,-10.63734087,-1.93570393,110803,0.003914052,6.450867551,-0.212060293,110803,0.347615914,7.932218223,1.131349566,110803,-2.468793363,-5.918516672,1.777899764,110803,-0.148604,-3.988159109,5.197762747,110803,-2.04201065,14.95466336,-1.031967549,110803,-0.035394816,-26.80018241,1.531840876,110803,2.623446473,61.02086565,1.636702819,110803,0.601669718,9.397640046,4.583358411,110803,0.496602093,-128.653966,-89.25034879
110807,110807,1.741340402,-10.65650869,-1.930262747,110807,-0.001758083,6.463731035,-0.190732166,110807,0.335198971,7.92096202,1.127855392,110807,-2.45657475,-5.920729865,1.777098654,110807,-0.158858835,-3.984699464,5.186985568,110807,-2.022300591,14.95804966,-1.012195917,110807,-0.056303293,-26.77970778,1.497628741,110807,2.605156111,61.02480085,1.614175392,110807,0.602813661,9.388523837,4.565782305,110807,0.487068966,-128.6575758,-89.2583778
110811,110811,1.758120937,-10.6771114,-1.917603489,110811,-0.007862262,6.477888338,-0.175856976,110811,0.299932813,7.910069726,1.118273586,110811,-2.453117178,-5.92292667,1.773386192,110811,-0.158800291,-3.980095507,5.175146739,110811,-2.010158894,14.9627203,-0.997286266,110811,-0.080045987,-26.76301572,1.462925828,110811,2.597475104,61.03804052,1.582338064,110811,0.598963732,9.375409847,4.548386681,110811,0.47506763,-128.6591684,-89.26283409
110815,110815,1.772577538,-10.6971308,-1.900967722,110815,-0.008478696,6.491449121,-0.162960044,110815,0.266453011,7.898037748,1.116573501,110815,-2.441431556,-5.926107243,1.776255247,110815,-0.153342358,-3.975307872,5.172923101,110815,-1.990701288,14.96755594,-0.984798396,110815,-0.098450192,-26.74874049,1.436162689,110815,2.58291623,61.05301107,1.547467589,110815,0.595151372,9.362278164,4.527171137,110815,0.461605963,-128.6599967,-89.26996772
110819,110819,1.772681047,-10.70578824,-1.883733619,110819,-0.010509082,6.504264532,-0.155792507,110819,0.260685047,7.900745158,1.097144214,110819,-2.43270805,-5.930389077,1.782212116,110819,-0.154241528,-3.9704224,5.164145082,110819,-1.977145581,14.97391938,-0.97456593,110819,-0.114181078,-26.7325121,1.408714374,110819,2.563174417,61.06987748,1.512302219,110819,0.597092292,9.34813674,4.508034963,110819,0.450222869,-128.6606781,-89.27730516
110823,110823,1.7742156,-10.71558898,-1.878977353,110823,-0.014731295,6.517376568,-0.158618674,110823,0.260987273,7.902409768,1.091542319,110823,-2.423077249,-5.935429983,1.784632802,110823,-0.157185254,-3.965690648,5.161418995,110823,-1.963895173,14.98055522,-0.971872782,110823,-0.127610145,-26.70671522,1.381506863,110823,2.53416722,61.09658814,1.474186049,110823,0.598887265,9.344602498,4.486708068,110823,0.4362599,-128.6713151,-89.2875906
110827,110827,1.765283771,-10.72455851,-1.876071105,110827,-0.011428292,6.52785695,-0.162746505,110827,0.269511611,7.903568114,1.088624622,110827,-2.41349012,-5.939825844,1.788768497,110827,-0.157354875,-3.961654716,5.157611441,110827,-1.952863065,14.98731221,-0.967472111,110827,-0.136963682,-26.67789763,1.364265234,110827,2.507389049,61.12709085,1.439340176,110827,0.602914157,9.343205771,4.469504708,110827,0.425825811,-128.6832541,-89.29653956
110831,110831,1.76590727,-10.73731715,-1.867511998,110831,-0.002087049,6.544127506,-0.164952903,110831,0.276990838,7.902368774,1.080083953,110831,-2.406942466,-5.949764116,1.787762843,110831,-0.164662461,-3.958649542,5.147793195,110831,-1.947392463,14.99788114,-0.96514189,110831,-0.146682685,-26.6492561,1.357392779,110831,2.479987995,61.15941487,1.411239248,110831,0.607317963,9.342581002,4.452682183,110831,0.420089299,-128.6959262,-89.30472266
110835,110835,1.76452983,-10.7459347,-1.86078105,110835,0.01332187,6.560674595,-0.160915724,110835,0.274984442,7.902228468,1.075759535,110835,-2.397895865,-5.959646697,1.786381067,110835,-0.165826752,-3.954088486,5.137533174,110835,-1.943910143,15.00952434,-0.964382538,110835,-0.170762525,-26.62589068,1.351602572,110835,2.451989224,61.19333863,1.384390614,110835,0.607442775,9.342541645,4.437562761,110835,0.411888619,-128.7098563,-89.30964991
110839,110839,1.772081888,-10.75645859,-1.859697978,110839,0.024932349,6.575734505,-0.161866511,110839,0.279955505,7.905965078,1.077550854,110839,-2.393385406,-5.968751875,1.783263581,110839,-0.18571625,-3.963835466,5.124318033,110839,-1.952572256,15.01277454,-0.962632303,110839,-0.191166295,-26.60806167,1.360071157,110839,2.406595685,61.21139934,1.382910128,110839,0.6143154,9.342974408,4.428531359,110839,0.409714344,-128.7158468,-89.30542349
110843,110843,1.782294468,-10.76599688,-1.863344055,110843,0.032723165,6.592637437,-0.162336937,110843,0.282697448,7.91119738,1.075358128,110843,-2.39508591,-5.978057195,1.781707516,110843,-0.20059354,-3.973883778,5.108005776,110843,-1.962335559,15.01503822,-0.959751287,110843,-0.208480307,-26.58950264,1.372095652,110843,2.371022076,61.2286636,1.379920139,110843,0.623125033,9.341946719,4.420911855,110843,0.408882031,-128.7204202,-89.30557876
110847,110847,1.81527723,-10.79445999,-1.887230262,110847,0.033727911,6.608020822,-0.158783562,110847,0.27324705,7.902450024,1.079686932,110847,-2.399155884,-5.987234977,1.780944826,110847,-0.220611242,-3.985546169,5.084861197,110847,-1.97040909,15.01619268,-0.954229017,110847,-0.213185392,-26.55533369,1.37741307,110847,2.335717141,61.24538222,1.377254824,110847,0.629532867,9.341703477,4.415736717,110847,0.409118634,-128.7246909,-89.30527874
110851,110851,1.844424723,-10.82124585,-1.913980771,110851,0.047787712,6.622967648,-0.159342932,110851,0.259314175,7.88886525,1.093930977,110851,-2.387204227,-5.996772646,1.781568717,110851,-0.226571542,-3.988258006,5.069223431,110851,-1.968475985,15.02024215,-0.957137062,110851,-0.207944423,-26.51080459,1.366812395,110851,2.326738151,61.27707114,1.359796989,110851,0.642146942,9.347979364,4.405750437,110851,0.407467659,-128.7387557,-89.3186384
110855,110855,1.873611675,-10.84986977,-1.930204804,110855,0.061279274,6.635661317,-0.15979064,110855,0.240074262,7.874097517,1.102692191,110855,-2.378548305,-6.005175792,1.77867343,110855,-0.222672987,-3.990119521,5.056162755,110855,-1.967293844,15.02434599,-0.961047936,110855,-0.204493167,-26.46601098,1.356898581,110855,2.324918713,61.30559847,1.339297979,110855,0.652251826,9.353562782,4.390716924,110855,0.402884238,-128.7518297,-89.33373222
110859,110859,1.890557579,-10.87310573,-1.939783881,110859,0.077011605,6.646825691,-0.1505219,110859,0.237901027,7.86436801,1.100386368,110859,-2.363850879,-6.015554741,1.770877265,110859,-0.227827488,-3.992171186,5.038745308,110859,-1.964767032,15.03037893,-0.971115818,110859,-0.202197298,-26.42130413,1.344205337,110859,2.329625965,61.33071322,1.322427968,110859,0.665550396,9.359180809,4.380651719,110859,0.401242052,-128.7644964,-89.34687749
110863,110863,1.88466057,-10.88819964,-1.947322638,110863,0.102584276,6.657680612,-0.136832227,110863,0.226673007,7.853500108,1.087950132,110863,-2.350929349,-6.025634368,1.765472241,110863,-0.225777537,-3.993962351,5.00971849,110863,-1.962578569,15.03694095,-0.975027074,110863,-0.202440455,-26.38044682,1.337626889,110863,2.345845929,61.35176207,1.309899596,110863,0.684273613,9.365064895,4.370342398,110863,0.405464987,-128.7769187,-89.3635188
110867,110867,1.882136907,-10.90322104,-1.956006765,110867,0.102790722,6.667853229,-0.129555339,110867,0.236728359,7.861178127,1.063303591,110867,-2.339239501,-6.033773157,1.759326682,110867,-0.241158593,-4.016608479,4.96980197,110867,-1.952740624,15.03997402,-0.980990318,110867,-0.210074593,-26.34897153,1.332649445,110867,2.361109576,61.36455157,1.295452024,110867,0.691739795,9.365973706,4.367176385,110867,0.409113889,-128.7809251,-89.37098475
110871,110871,1.880413177,-10.91895671,-1.961548669,110871,0.095737773,6.672175678,-0.132409983,110871,0.244067672,7.864709865,1.03827475,110871,-2.331663769,-6.035905567,1.760190313,110871,-0.256313569,-4.035908073,4.931172353,110871,-1.94457907,15.04267331,-0.980573277,110871,-0.2284322,-26.32078056,1.318404521,110871,2.374609517,61.37247933,1.27937166,110871,0.699098657,9.364835004,4.357953834,110871,0.406253516,-128.7824671,-89.37908257
110875,110875,1.871194859,-10.92694528,-1.954326206,110875,0.080794833,6.66560513,-0.139066134,110875,0.256997368,7.880257331,0.993868087,110875,-2.322437767,-6.036727602,1.765042321,110875,-0.265764667,-4.054372487,4.892820998,110875,-1.929398463,15.04434605,-0.983970177,110875,-0.258721406,-26.30217814,1.302127998,110875,2.390068599,61.36900427,1.266102927,110875,0.697397559,9.362846013,4.353334271,110875,0.399491236,-128.7821003,-89.38182726
110879,110879,1.865274007,-10.9321956,-1.9617497,110879,0.060482892,6.658259173,-0.146374442,110879,0.255910667,7.878172821,0.970196026,110879,-2.310917878,-6.044956029,1.766153454,110879,-0.259131628,-4.0587619,4.853944727,110879,-1.911813359,15.04897945,-0.985896287,110879,-0.278757071,-26.28951231,1.283288595,110879,2.399980688,61.34934651,1.265429662,110879,0.701949345,9.362881852,4.343511513,110879,0.395084406,-128.7795832,-89.38561207
110883,110883,1.858192108,-10.93849656,-1.973980755,110883,0.042059479,6.653392282,-0.152184769,110883,0.246100639,7.874640687,0.954215319,110883,-2.301091427,-6.056225719,1.765614573,110883,-0.235373952,-4.060961962,4.823326239,110883,-1.8959624,15.05613954,-0.991100127,110883,-0.30294555,-26.28023106,1.258193342,110883,2.404570551,61.3262726,1.261418481,110883,0.703725971,9.362364132,4.337703955,110883,0.388152801,-128.776804,-89.38907405
110887,110887,1.869634983,-10.94962826,-1.998631613,110887,0.046008101,6.664233081,-0.148071157,110887,0.232235376,7.864724259,0.947670221,110887,-2.279610646,-6.072424797,1.764468201,110887,-0.22202908,-4.063288422,4.787187635,110887,-1.878588214,15.06243696,-0.993733213,110887,-0.318484812,-26.27527144,1.240276918,110887,2.412843866,61.299248,1.257696175,110887,0.706515572,9.363379129,4.333637774,110887,0.384853991,-128.7742765,-89.3896037
110891,110891,1.884818591,-10.9606665,-2.020993487,110891,0.042626704,6.673018211,-0.145164202,110891,0.217800299,7.854179705,0.938421139,110891,-2.279469771,-6.073877099,1.764324441,110891,-0.200218705,-4.062662569,4.753551201,110891,-1.875145965,15.05699604,-0.986620059,110891,-0.338354224,-26.27185366,1.206258561,110891,2.418021951,61.27289414,1.249622697,110891,0.704443501,9.365363117,4.32705139,110891,0.378359101,-128.773198,-89.38963795
110895,110895,1.899043268,-10.97035262,-2.044183148,110895,0.043994934,6.682607368,-0.139152204,110895,0.196639255,7.838912541,0.937603568,110895,-2.279147089,-6.075129961,1.768850055,110895,-0.162589307,-4.047178078,4.727884881,110895,-1.861518048,15.05915687,-0.981567507,110895,-0.339648644,-26.26478931,1.171435617,110895,2.437731179,61.25753558,1.230866196,110895,0.699834496,9.36636644,4.323279722,110895,0.371342296,-128.7798355,-89.39407078
110899,110899,1.903055949,-10.97880098,-2.062513573,110899,0.039973584,6.683169883,-0.133342961,110899,0.187511226,7.823448232,0.932278212,110899,-2.281200927,-6.073400922,1.773800544,110899,-0.135387434,-4.034071844,4.701895746,110899,-1.848726129,15.05954534,-0.977494562,110899,-0.347184381,-26.26162027,1.144846325,110899,2.454396827,61.24209192,1.208428639,110899,0.695410853,9.370503795,4.323796969,110899,0.366404847,-128.7864263,-89.3926521
110903,110903,1.87684028,-10.97201922,-2.084462762,110903,0.039351704,6.68286968,-0.116804308,110903,0.202350186,7.818174865,0.924468551,110903,-2.279533016,-6.072317968,1.773649431,110903,-0.11147482,-4.020387006,4.676610204,110903,-1.839427727,15.06159877,-0.974328825,110903,-0.340789545,-26.27129969,1.129335217,110903,2.476495974,61.22453928,1.184989105,110903,0.692646407,9.372890107,4.331290094,110903,0.365960924,-128.7913661,-89.38845356
110907,110907,1.855373936,-10.965093,-2.11260311,110907,0.044523223,6.683386907,-0.103185844,110907,0.234222987,7.83613651,0.914477931,110907,-2.275543765,-6.074883749,1.771055211,110907,-0.112019089,-4.03123418,4.647791071,110907,-1.822724766,15.06450462,-0.97749455,110907,-0.330167959,-26.2864102,1.118423059,110907,2.485551468,61.19621319,1.179165949,110907,0.684927105,9.374938283,4.349716132,110907,0.370448077,-128.7940696,-89.37799232
110911,110911,1.821813153,-10.95673707,-2.137168768,110911,0.037128575,6.682712561,-0.096272166,110911,0.27163465,7.854123098,0.892974954,110911,-2.271598138,-6.078492704,1.776210322,110911,-0.112896645,-4.041755734,4.609533349,110911,-1.807648873,15.06948193,-0.974390145,110911,-0.313883942,-26.3029733,1.106984124,110911,2.497892052,61.1708714,1.178794776,110911,0.679007007,9.376923091,4.36219948,110911,0.373362236,-128.7969739,-89.37044853
110915,110915,1.811566187,-10.96755271,-2.163154442,110915,0.013831973,6.673653379,-0.099280584,110915,0.307662276,7.863097513,0.878374732,110915,-2.280114958,-6.076619401,1.782345354,110915,-0.126789922,-4.052017038,4.58209671,110915,-1.798496262,15.07473371,-0.976964116,110915,-0.287891055,-26.32345459,1.095047953,110915,2.515799299,61.14554782,1.174116741,110915,0.676766604,9.376804612,4.373933336,110915,0.374813579,-128.7979769,-89.36559075
110919,110919,1.808205676,-10.97486876,-2.171300698,110919,-0.00759768,6.664027898,-0.095631938,110919,0.332466717,7.873503437,0.857721586,110919,-2.294165279,-6.071328863,1.778564961,110919,-0.13772463,-4.063698036,4.557555738,110919,-1.788192394,15.07493351,-0.979469003,110919,-0.278469859,-26.35451567,1.091152148,110919,2.536050121,61.12306799,1.174521439,110919,0.668844433,9.377681031,4.386121643,110919,0.37667309,-128.7979316,-89.35814413
110923,110923,1.818662567,-10.98335717,-2.179174991,110923,-0.025983237,6.656038149,-0.089608634,110923,0.350088075,7.884314205,0.834690709,110923,-2.312963784,-6.066911268,1.777755065,110923,-0.152200774,-4.075541995,4.53634219,110923,-1.786876244,15.07624813,-0.98134895,110923,-0.262453914,-26.38308034,1.086160633,110923,2.558459224,61.11306538,1.163143675,110923,0.665804247,9.381774358,4.389412285,110923,0.370917132,-128.8019012,-89.35605184
110927,110927,1.842265176,-10.99800051,-2.188881662,110927,-0.03101299,6.662353982,-0.08295141,110927,0.361266314,7.888955606,0.813707935,110927,-2.314170814,-6.076311858,1.767356834,110927,-0.166806827,-4.087489548,4.513465196,110927,-1.787189374,15.07711964,-0.98640752,110927,-0.235942951,-26.41037381,1.084533212,110927,2.584137513,61.111302,1.152662105,110927,0.662817583,9.387075625,4.388974665,110927,0.363999154,-128.8065306,-89.35647794
110931,110931,1.866264738,-11.00822174,-2.186906695,110931,-0.02476902,6.670031402,-0.070684038,110931,0.358602127,7.893654552,0.789343079,110931,-2.308336484,-6.085489141,1.762709401,110931,-0.177900183,-4.099395622,4.490107762,110931,-1.787958379,15.07759355,-0.982916703,110931,-0.190403634,-26.42216833,1.069461063,110931,2.602668998,61.11029865,1.147509695,110931,0.657235448,9.390913675,4.380226076,110931,0.352015136,-128.8092874,-89.35701182
110935,110935,1.888983754,-11.02042438,-2.179385953,110935,-0.023527538,6.676832641,-0.056801161,110935,0.353998966,7.895670208,0.761414527,110935,-2.299151382,-6.099588948,1.753497788,110935,-0.189386591,-4.112504054,4.466247132,110935,-1.783775268,15.08099894,-0.984035946,110935,-0.148272303,-26.44054534,1.063248579,110935,2.60653063,61.09533024,1.163231805,110935,0.650159933,9.387777896,4.374531542,110935,0.342035954,-128.8032341,-89.35279028
110939,110939,1.90820379,-11.03182656,-2.175416016,110939,-0.021884339,6.684023282,-0.052543947,110939,0.356094684,7.898275789,0.742761466,110939,-2.291336298,-6.112078529,1.751489719,110939,-0.200296486,-4.127499967,4.450033941,110939,-1.776137048,15.08168783,-0.983568148,110939,-0.107547719,-26.45829842,1.056039776,110939,2.609259701,61.08065893,1.182823019,110939,0.639050486,9.384960061,4.371138322,110939,0.331647236,-128.7961716,-89.34562344
110943,110943,1.901317346,-11.02456039,-2.156458106,110943,-0.029041182,6.684874861,-0.047940824,110943,0.374021484,7.915663476,0.710816502,110943,-2.297636604,-6.112881283,1.749689492,110943,-0.217706169,-4.143311228,4.437231807,110943,-1.775727446,15.08224433,-0.983526475,110943,-0.070435431,-26.47292272,1.052626771,110943,2.60393344,61.06830682,1.216613542,110943,0.629702233,9.384272212,4.370119713,110943,0.322152025,-128.7899968,-89.33193412
110947,110947,1.889626733,-11.01816819,-2.134922341,110947,-0.029786791,6.686648817,-0.05049062,110947,0.400149793,7.933835297,0.683294064,110947,-2.292765442,-6.121177215,1.756679361,110947,-0.237376892,-4.159276478,4.431218623,110947,-1.765032653,15.08922325,-0.98269098,110947,-0.049480778,-26.4984331,1.057877303,110947,2.595454039,61.05310738,1.25546779,110947,0.621024884,9.379845244,4.370212751,110947,0.316577741,-128.7804414,-89.31827633
110951,110951,1.886961261,-11.01304587,-2.114911105,110951,-0.03140607,6.687837334,-0.053049739,110951,0.405369475,7.945689999,0.668304201,110951,-2.293973613,-6.12924995,1.766194686,110951,-0.24919185,-4.174193762,4.435694978,110951,-1.765905972,15.09348861,-0.981948153,110951,-0.024726033,-26.52356062,1.051231804,110951,2.58871004,61.04538719,1.279574828,110951,0.619482555,9.37886465,4.36540569,110951,0.30786337,-128.7709831,-89.3110975
110955,110955,1.916538263,-11.03917248,-2.131542503,110955,-0.03845042,6.684944972,-0.060548729,110955,0.377611598,7.926139691,0.69393967,110955,-2.284390107,-6.139467784,1.772914928,110955,-0.263449192,-4.188718684,4.439808709,110955,-1.76750279,15.09720155,-0.983917932,110955,-0.004037703,-26.54668572,1.041283919,110955,2.578659623,61.03505219,1.305664081,110955,0.619041305,9.378253863,4.359568132,110955,0.296052061,-128.7614105,-89.3038271
110959,110959,1.9464494,-11.0625846,-2.143145508,110959,-0.037434925,6.68309457,-0.069907849,110959,0.355212217,7.905898573,0.719845166,110959,-2.273087132,-6.149890801,1.780944091,110959,-0.279450219,-4.201422082,4.447869178,110959,-1.769108016,15.10151244,-0.988091905,110959,0.011831547,-26.56425544,1.035867781,110959,2.571148262,61.02329626,1.340175332,110959,0.616505885,9.377920155,4.357743803,110959,0.28688365,-128.7523719,-89.29458196
110963,110963,1.980758918,-11.08379968,-2.154342078,110963,-0.034535272,6.67916867,-0.080580619,110963,0.298816107,7.86257539,0.771051015,110963,-2.281341966,-6.155349786,1.789820584,110963,-0.25662067,-4.184731227,4.480972977,110963,-1.786059579,15.10696983,-0.987822752,110963,0.03726069,-26.57651675,1.027204704,110963,2.576899471,61.01832752,1.358373298,110963,0.617592976,9.379063961,4.35262228,110963,0.278611164,-128.749448,-89.29496103
110967,110967,2.020314504,-11.10429334,-2.16644451,110967,-0.032099376,6.674263433,-0.090537186,110967,0.242141994,7.819238109,0.822346013,110967,-2.284618519,-6.160151028,1.801668775,110967,-0.233248057,-4.167228131,4.513818643,110967,-1.796495345,15.11222716,-0.984544267,110967,0.047972912,-26.58992901,1.019129704,110967,2.582054014,61.01149971,1.378726431,110967,0.614550961,9.380684973,4.345257048,110967,0.266267555,-128.7465329,-89.29578073
110971,110971,2.015832046,-11.09504874,-2.159521047,110971,-0.028443683,6.669893416,-0.095588993,110971,0.234762514,7.811310115,0.847090938,110971,-2.292241275,-6.163922292,1.81036835,110971,-0.214310221,-4.151449672,4.548264356,110971,-1.809703393,15.11912225,-0.980143908,110971,0.058570801,-26.60394467,1.012447416,110971,2.596023268,61.00286946,1.398199216,110971,0.61326997,9.383422105,4.336166588,110971,0.254745324,-128.7442506,-89.29866411
110975,110975,1.990252396,-11.08254011,-2.162514052,110975,-0.023593169,6.66215117,-0.097895406,110975,0.267225971,7.819903252,0.862311138,110975,-2.30212867,-6.163696149,1.816774031,110975,-0.219740943,-4.150154932,4.567632727,110975,-1.822342888,15.12606351,-0.970159949,110975,0.067293909,-26.6227269,1.015209561,110975,2.61521588,60.99010227,1.415131327,110975,0.613160309,9.382316857,4.325306547,110975,0.244648066,-128.739546,-89.30437166
110979,110979,1.969902326,-11.06836146,-2.162722987,110979,-0.019264183,6.654764482,-0.092428479,110979,0.295189353,7.830213296,0.871118164,110979,-2.306316381,-6.164101872,1.816577023,110979,-0.2230962,-4.149297813,4.582484677,110979,-1.829412379,15.1319398,-0.963453085,110979,0.078512548,-26.64489156,1.022533357,110979,2.617014077,60.95080157,1.43933491,110979,0.611306234,9.380897469,4.313150194,110979,0.231451055,-128.7334327,-89.31060909
110983,110983,1.964948768,-11.07034547,-2.161764304,110983,0.0028121,6.657178334,-0.074343159,110983,0.302898801,7.824121894,0.878245777,110983,-2.285208771,-6.17574918,1.812975062,110983,-0.22183636,-4.146864762,4.589511991,110983,-1.824338548,15.13833367,-0.955626955,110983,0.08711908,-26.66838432,1.039982217,110983,2.621154953,60.91030383,1.458597117,110983,0.605661146,9.378645813,4.304198008,110983,0.221135327,-128.7266897,-89.31411455
110987,110987,1.974380125,-11.07366529,-2.169905257,110987,0.022456862,6.65995101,-0.055168141,110987,0.302124602,7.81890759,0.894128723,110987,-2.260325636,-6.187928122,1.805605874,110987,-0.223207041,-4.144788172,4.593384993,110987,-1.820613135,15.14353743,-0.944939462,110987,0.090981435,-26.69741652,1.072788594,110987,2.631020181,60.86646594,1.477248688,110987,0.605166995,9.375169035,4.290835535,110987,0.21233002,-128.7181572,-89.32099986
110991,110991,1.99171469,-11.07630401,-2.170696073,110991,0.033859068,6.66247097,-0.038390199,110991,0.30321395,7.817865009,0.88918064,110991,-2.244458365,-6.200187785,1.801195637,110991,-0.240466446,-4.153976394,4.587424187,110991,-1.822327866,15.14226258,-0.93360765,110991,0.091988585,-26.73486518,1.115661077,110991,2.660326145,60.83923176,1.470579667,110991,0.601190706,9.368540211,4.285502503,110991,0.205078574,-128.6998061,-89.31565395
110995,110995,2.002455466,-11.07999897,-2.16383164,110995,0.049145903,6.664928042,-0.035190976,110995,0.305480385,7.816880688,0.877205949,110995,-2.232054026,-6.212184854,1.79972323,110995,-0.252695843,-4.163473125,4.57882238,110995,-1.828694331,15.14100326,-0.92608052,110995,0.094422485,-26.77216718,1.157327013,110995,2.692615918,60.81072317,1.456662977,110995,0.597877891,9.361630285,4.278867801,110995,0.196555358,-128.6809283,-89.3123835
110999,110999,2.010681015,-11.08369683,-2.157169204,110999,0.048696798,6.662281304,-0.019936032,110999,0.300703558,7.812805073,0.865964811,110999,-2.220051802,-6.22117208,1.786974874,110999,-0.258874118,-4.171511514,4.567889991,110999,-1.827068415,15.1397725,-0.921973806,110999,0.097691569,-26.80758852,1.208056573,110999,2.716731214,60.78340072,1.436384018,110999,0.589833318,9.355272149,4.274589616,110999,0.188758719,-128.6630905,-89.30375288
111003,111003,2.029683914,-11.08684425,-2.157120802,111003,0.038506584,6.661236933,-0.014226794,111003,0.30627623,7.820006187,0.849327017,111003,-2.211871931,-6.232387344,1.791649911,111003,-0.285503877,-4.191287481,4.545771111,111003,-1.819572622,15.14065458,-0.912641798,111003,0.096412749,-26.84276977,1.265144576,111003,2.736473285,60.75471719,1.421403904,111003,0.580336648,9.34775963,4.274496174,111003,0.182720793,-128.6438397,-89.29007476
111007,111007,2.047377481,-11.09034967,-2.158055769,111007,0.066540141,6.661470344,0.004539256,111007,0.311806764,7.826915631,0.834515721,111007,-2.199958287,-6.245461687,1.786570347,111007,-0.30339632,-4.202291371,4.533911318,111007,-1.805114663,15.15010371,-0.919963672,111007,0.101855502,-26.8762766,1.315555311,111007,2.728648451,60.71710453,1.403322052,111007,0.561378699,9.332503947,4.28209786,111007,0.172544315,-128.624909,-89.27813438
111011,111011,2.044146971,-11.07658233,-2.154227982,111011,0.047516073,6.655916303,0.010388383,111011,0.346578078,7.849693159,0.818676993,111011,-2.199423873,-6.250793402,1.784377703,111011,-0.32900035,-4.213264607,4.524855443,111011,-1.792350595,15.1597028,-0.926684373,111011,0.109410705,-26.90473008,1.366746408,111011,2.723925088,60.68342043,1.384930671,111011,0.543497072,9.318572276,4.285660738,111011,0.162387045,-128.6071809,-89.26701204
111015,111015,2.027707316,-11.05791315,-2.142544318,111015,0.02160917,6.648777532,-0.003317718,111015,0.385415721,7.874191572,0.796181027,111015,-2.202633271,-6.257656907,1.778692081,111015,-0.35500837,-4.224523185,4.515090949,111015,-1.783575589,15.17096821,-0.932885011,111015,0.122420068,-26.9317355,1.415283399,111015,2.720453347,60.65248649,1.357620374,111015,0.525259383,9.304602317,4.285506837,111015,0.150877665,-128.5897396,-89.25776304
111019,111019,2.017912378,-11.04085241,-2.13954809,111019,0.007197238,6.640073424,-0.008685805,111019,0.399839789,7.878402354,0.794678629,111019,-2.204549697,-6.263938978,1.780707722,111019,-0.371839668,-4.221590877,4.517493446,111019,-1.778872684,15.17781097,-0.927560361,111019,0.144607924,-26.94556589,1.453184224,111019,2.727221125,60.63207409,1.319540484,111019,0.528258261,9.303746876,4.272704903,111019,0.140097142,-128.582101,-89.26403723
111023,111023,1.997612586,-11.0229805,-2.136815388,111023,-0.003559106,6.631846873,-0.011419305,111023,0.412585693,7.883014082,0.794777427,111023,-2.204999308,-6.268045768,1.788756609,111023,-0.374918535,-4.218394928,4.519439219,111023,-1.769011348,15.18282177,-0.925285526,111023,0.167536059,-26.95808059,1.489233301,111023,2.726342566,60.61363053,1.280287622,111023,0.531954025,9.302723228,4.261313252,111023,0.131113504,-128.57423,-89.27223905
111027,111027,1.937511491,-10.97993754,-2.122396653,111027,-0.010907808,6.627121548,-0.00856613,111027,0.440874444,7.900071695,0.791681536,111027,-2.202748231,-6.27550036,1.79113075,111027,-0.373390868,-4.213049712,4.523684506,111027,-1.76259323,15.18674266,-0.919871074,111027,0.181336363,-26.96816557,1.527408069,111027,2.723654592,60.59811062,1.243705439,111027,0.529095284,9.301841964,4.252727761,111027,0.121234111,-128.5668693,-89.27263882
111031,111031,1.883795703,-10.93517952,-2.095212012,111031,-0.015217818,6.622301963,-0.003839992,111031,0.447106565,7.894098129,0.807509919,111031,-2.205685397,-6.281966319,1.791406027,111031,-0.354077317,-4.1832041,4.557233877,111031,-1.764694546,15.18873351,-0.913015671,111031,0.20920273,-26.971032,1.553995108,111031,2.720679038,60.5844389,1.206928879,111031,0.528260674,9.301952571,4.237968353,111031,0.106837035,-128.5606449,-89.2789928
111035,111035,1.832331515,-10.89037946,-2.058957492,111035,-0.020521845,6.617245236,0.00178641,111035,0.442818526,7.888723586,0.819085024,111035,-2.204247951,-6.288669706,1.789607176,111035,-0.321425195,-4.150871203,4.593997288,111035,-1.764018626,15.1932352,-0.911390657,111035,0.231844048,-26.97109343,1.585662663,111035,2.722486526,60.57382347,1.175265648,111035,0.524978871,9.300105729,4.228013541,111035,0.095695218,-128.5548713,-89.28411481
111039,111039,1.828315428,-10.88262347,-2.052404886,111039,-0.011831255,6.620874183,0.008288798,111039,0.39895414,7.848641788,0.859013227,111039,-2.203479035,-6.293627143,1.790329899,111039,-0.297762069,-4.119696757,4.625778829,111039,-1.769045267,15.19653719,-0.906671226,111039,0.255560183,-26.97067937,1.608945434,111039,2.728688646,60.56537276,1.149932366,111039,0.52602851,9.298470221,4.21991027,111039,0.085989747,-128.549256,-89.28873157
111043,111043,1.849104396,-10.88830618,-2.051576812,111043,-0.00374589,6.624737865,0.017944384,111043,0.351413267,7.809049022,0.899563942,111043,-2.200381307,-6.297093429,1.792499517,111043,-0.276520924,-4.090108408,4.661088735,111043,-1.765575308,15.1963687,-0.895821512,111043,0.281649932,-26.96764599,1.629573026,111043,2.74274199,60.55804175,1.126876487,111043,0.52711764,9.298198151,4.207819748,111043,0.075344145,-128.5440395,-89.2946982
111047,111047,1.870127735,-10.89312925,-2.056648855,111047,0.000826923,6.629764647,0.030754249,111047,0.347730853,7.8100469,0.906164781,111047,-2.196393001,-6.301015248,1.788923288,111047,-0.3010142,-4.10281172,4.660538601,111047,-1.764953991,15.19306987,-0.889245908,111047,0.299727713,-26.96301179,1.642943533,111047,2.743959189,60.54676849,1.111925397,111047,0.528197304,9.298684437,4.193871344,111047,0.064026567,-128.5378298,-89.298797
111051,111051,1.889755454,-10.90001129,-2.055973239,111051,0.008780124,6.636655111,0.044680063,111051,0.339303614,7.809086144,0.909383314,111051,-2.188876552,-6.304511825,1.790014363,111051,-0.32151767,-4.114651847,4.664443677,111051,-1.75805872,15.18780359,-0.88088871,111051,0.315476575,-26.95847414,1.658248008,111051,2.745566325,60.53538577,1.099532436,111051,0.528904547,9.298499632,4.182112662,111051,0.052595657,-128.53071,-89.30257709
111055,111055,1.885955054,-10.89643925,-2.042077752,111055,0.005909672,6.632552022,0.051216373,111055,0.345297521,7.814407073,0.902265935,111055,-2.182627355,-6.305742076,1.790090134,111055,-0.337801766,-4.12648035,4.672156631,111055,-1.751723737,15.18330447,-0.878110845,111055,0.3283877,-26.95213943,1.677339615,111055,2.742122272,60.52573301,1.084020906,111055,0.527788545,9.299539981,4.174031348,111055,0.041936075,-128.5242698,-89.30312332
111059,111059,1.884356821,-10.89285529,-2.02389046,111059,-0.000268516,6.629014618,0.060762443,111059,0.351420916,7.821781415,0.893347129,111059,-2.185887123,-6.305012476,1.788934948,111059,-0.33602791,-4.125457323,4.688165546,111059,-1.735381513,15.19127292,-0.88340213,111059,0.325114321,-26.96116316,1.707889346,111059,2.754985981,60.53147602,1.060902876,111059,0.510408539,9.281865724,4.18443574,111059,0.035679667,-128.5130189,-89.2987193
111063,111063,1.883524647,-10.88945079,-2.011469601,111063,-0.009633313,6.625752809,0.067625203,111063,0.361180344,7.828660507,0.888650672,111063,-2.185603076,-6.304931613,1.790501738,111063,-0.337156842,-4.124151905,4.704240108,111063,-1.713429954,15.19943309,-0.884427158,111063,0.311920237,-26.97088774,1.72917611,111063,2.759531213,60.53893543,1.040674793,111063,0.489928317,9.263590489,4.192535012,111063,0.027803442,-128.50128,-89.29380384
111067,111067,1.894463453,-10.89719854,-2.00569536,111067,-0.01507299,6.621709974,0.063168194,111067,0.35490251,7.823636851,0.892198948,111067,-2.190977357,-6.302555538,1.798081884,111067,-0.334540427,-4.122625906,4.714930144,111067,-1.697411219,15.20853061,-0.885471832,111067,0.293757576,-26.97973675,1.751977358,111067,2.759109942,60.54723521,1.018043915,111067,0.47131331,9.245512598,4.200469007,111067,0.021119699,-128.4891754,-89.28751069
111071,111071,1.906878478,-10.90537304,-2.006713162,111071,-0.029755647,6.618289134,0.057056664,111071,0.355784886,7.8202347,0.900437391,111071,-2.20134361,-6.303961897,1.800235983,111071,-0.335946124,-4.121757333,4.728315185,111071,-1.682237681,15.22064886,-0.895207594,111071,0.279626891,-26.98746548,1.777957077,111071,2.767315845,60.55759915,0.996300648,111071,0.459168198,9.228295295,4.210838482,111071,0.018879968,-128.4783263,-89.28609201
111075,111075,1.920438338,-10.91231037,-2.00780168,111075,-0.040232213,6.613566005,0.051348694,111075,0.344351255,7.813256626,0.909286325,111075,-2.210758317,-6.30581292,1.803818705,111075,-0.350188593,-4.1371433,4.723624232,111075,-1.694345371,15.21540977,-0.889385484,111075,0.27608747,-26.97836137,1.785177114,111075,2.782258949,60.57745638,0.979729762,111075,0.471171555,9.232128671,4.202177719,111075,0.021016505,-128.470387,-89.28478205
111079,111079,1.926400028,-10.9215291,-2.008154823,111079,-0.038156407,6.615241256,0.047925997,111079,0.325631932,7.803705553,0.917494365,111079,-2.219500529,-6.308476069,1.808553852,111079,-0.35998087,-4.151407605,4.718483384,111079,-1.707532716,15.21134488,-0.886418131,111079,0.269303801,-26.96646741,1.788710443,111079,2.791807325,60.60024651,0.958536842,111079,0.478573178,9.238983193,4.193514429,111079,0.019479252,-128.4653163,-89.27922179
111083,111083,1.950563396,-10.9377012,-2.015342462,111083,-0.029176815,6.622046467,0.034688258,111083,0.306504587,7.79307488,0.92551946,111083,-2.223205539,-6.316987335,1.815341072,111083,-0.380076232,-4.163803992,4.716343096,111083,-1.727544401,15.20993477,-0.888175814,111083,0.257578445,-26.95393045,1.791493941,111083,2.800500338,60.62655626,0.942372774,111083,0.49003454,9.245262051,4.189693713,111083,0.021704221,-128.461778,-89.27467224
111087,111087,1.965169897,-10.95338207,-2.030338011,111087,-0.012794884,6.627115728,0.017699916,111087,0.301841959,7.78784862,0.938725284,111087,-2.22823948,-6.32112871,1.832064557,111087,-0.39940683,-4.172609681,4.712227265,111087,-1.741970303,15.21458461,-0.88769982,111087,0.245587407,-26.94312963,1.795574067,111087,2.793814062,60.64427844,0.928797443,111087,0.493607036,9.245436235,4.184982301,111087,0.020917942,-128.4607594,-89.27555296
111091,111091,1.985699011,-10.96746076,-2.04767197,111091,-0.003057247,6.631106284,0.007453843,111091,0.295712906,7.784348312,0.95040614,111091,-2.244051698,-6.325765503,1.839080817,111091,-0.412620242,-4.181898894,4.708372496,111091,-1.760873113,15.22031412,-0.891018464,111091,0.228485457,-26.93314249,1.801315477,111091,2.78869013,60.66372308,0.919213887,111091,0.49615424,9.246523958,4.184886669,111091,0.021242483,-128.4603705,-89.27636118
111095,111095,1.974569578,-10.9616427,-2.046155502,111095,0.008860698,6.632193084,-0.000814946,111095,0.32066601,7.801573514,0.937602466,111095,-2.261427464,-6.323292303,1.850706976,111095,-0.427795863,-4.191689156,4.700792224,111095,-1.780839807,15.2264146,-0.887197295,111095,0.215120768,-26.92636081,1.804545525,111095,2.788604345,60.68317441,0.911347433,111095,0.501043196,9.245560389,4.179807496,111095,0.0200132,-128.4586392,-89.28091197
111099,111099,1.952338536,-10.94618303,-2.040528809,111099,0.01628066,6.631680755,-0.009035728,111099,0.350751225,7.819263707,0.928589196,111099,-2.288185995,-6.31253982,1.861672622,111099,-0.44317877,-4.200892946,4.693431889,111099,-1.806417882,15.22591585,-0.879181335,111099,0.189549577,-26.92109157,1.802813246,111099,2.782194712,60.70426622,0.903361744,111099,0.502994668,9.244672292,4.17317558,111099,0.01711126,-128.4571769,-89.28270007
111103,111103,1.933904521,-10.93106544,-2.032109947,111103,0.027104016,6.629284139,-0.019794099,111103,0.35853774,7.827536323,0.924052469,111103,-2.318591633,-6.300352245,1.868855664,111103,-0.446425732,-4.206008339,4.690026805,111103,-1.840937176,15.22004694,-0.871555461,111103,0.164890018,-26.9225517,1.80578298,111103,2.792315337,60.73777187,0.884418971,111103,0.509780813,9.248811147,4.159215178,111103,0.010955929,-128.4549813,-89.28699738
111107,111107,1.912119301,-10.91415835,-2.023118127,111107,0.01987481,6.61297221,-0.031809931,111107,0.369928075,7.836807191,0.924402638,111107,-2.343369095,-6.289892403,1.870953276,111107,-0.448384351,-4.210587347,4.691911729,111107,-1.871071989,15.21695507,-0.867805544,111107,0.144465101,-26.9267947,1.800946243,111107,2.799926211,60.77075704,0.864566492,111107,0.518649816,9.251952285,4.146988636,111107,0.003911567,-128.4524504,-89.29376411
111111,111111,1.910965808,-10.91194179,-2.025649013,111111,0.018949699,6.604651282,-0.02430141,111111,0.378059432,7.840109571,0.926950434,111111,-2.342708053,-6.287903782,1.861128631,111111,-0.452809914,-4.215223566,4.690566466,111111,-1.885546377,15.21334811,-0.867473301,111111,0.124225302,-26.9304675,1.794585621,111111,2.808232829,60.80551806,0.850508836,111111,0.525982749,9.256419992,4.133737015,111111,-0.004466391,-128.4511289,-89.30016214
111115,111115,1.912249248,-10.90976861,-2.026675049,111115,0.020133466,6.597507659,-0.016705636,111115,0.37618731,7.842018605,0.924989621,111115,-2.33758288,-6.290978927,1.853864702,111115,-0.455158915,-4.222653087,4.681219576,111115,-1.896811848,15.20948384,-0.86028953,111115,0.104596648,-26.93640332,1.787049988,111115,2.781834973,60.81230466,0.865703894,111115,0.526062914,9.255327466,4.121749348,111115,-0.014896089,-128.4390651,-89.29564162
111119,111119,1.91545292,-10.90631549,-2.032279355,111119,0.017105864,6.589850403,-0.007423762,111119,0.360530228,7.842522182,0.9318008,111119,-2.330259441,-6.291733284,1.852266986,111119,-0.444840792,-4.226991082,4.67436965,111119,-1.898819051,15.20388449,-0.849721085,111119,0.086255424,-26.94210718,1.782599726,111119,2.756464454,60.81934489,0.884219527,111119,0.524347719,9.254086596,4.111015626,111119,-0.023181696,-128.4275434,-89.29171936
111123,111123,1.916856177,-10.90791829,-2.037266683,111123,0.03142689,6.593647714,0.01110665,111123,0.355180081,7.838098012,0.932234612,111123,-2.315076572,-6.294132909,1.850489329,111123,-0.447038781,-4.231409801,4.662422653,111123,-1.902593318,15.19622269,-0.832797929,111123,0.076218844,-26.94939951,1.770606507,111123,2.738371131,60.82437603,0.90216492,111123,0.525194084,9.252379588,4.095297709,111123,-0.03401608,-128.4155138,-89.2910767
111127,111127,1.92332113,-10.91162966,-2.042133759,111127,0.044795763,6.597343922,0.028608179,111127,0.349449027,7.833086517,0.935626685,111127,-2.287436065,-6.30711881,1.83916938,111127,-0.45040022,-4.23481544,4.656512022,111127,-1.894406321,15.19834031,-0.825796643,111127,0.068367057,-26.95526155,1.759168526,111127,2.716649958,60.82887532,0.93122595,111127,0.528735614,9.250461829,4.080604383,111127,-0.04277662,-128.4035708,-89.28975091
111131,111131,1.925335185,-10.91629239,-2.040018465,111131,0.060723534,6.601195064,0.043303015,111131,0.329304621,7.824596863,0.924948098,111131,-2.254915026,-6.319450262,1.833706086,111131,-0.432410215,-4.223741369,4.649736705,111131,-1.872019822,15.20976279,-0.825410175,111131,0.087985728,-26.94306328,1.733741867,111131,2.715635977,60.85112597,0.938700035,111131,0.526222709,9.243405259,4.071656328,111131,-0.051162707,-128.3971218,-89.29545277
111135,111135,1.929586644,-10.91977678,-2.034490162,111135,0.064556909,6.599867393,0.055972437,111135,0.315470611,7.81599857,0.92274788,111135,-2.236064246,-6.330730882,1.827266196,111135,-0.418358734,-4.212312146,4.649743458,111135,-1.853255973,15.21978296,-0.819009372,111135,0.105799299,-26.93116234,1.712495044,111135,2.706983183,60.87109017,0.949571888,111135,0.5196114,9.236473941,4.066804171,111135,-0.055701615,-128.3903698,-89.29727472
111139,111139,1.916867372,-10.91320302,-2.027759298,111139,0.087758852,6.617435805,0.072947964,111139,0.300607488,7.805916884,0.918334985,111139,-2.192613612,-6.359974669,1.820478399,111139,-0.402280927,-4.202015805,4.642708679,111139,-1.832088884,15.22740899,-0.809372959,111139,0.125381657,-26.91667829,1.693624185,111139,2.699429956,60.890255,0.963490318,111139,0.512289094,9.231033302,4.060347953,111139,-0.060871781,-128.3836965,-89.29778054
111143,111143,1.912037797,-10.90580445,-2.015331162,111143,0.109463478,6.635214919,0.093466746,111143,0.283755806,7.801422542,0.903325433,111143,-2.181333007,-6.371163654,1.818296812,111143,-0.389947652,-4.198863005,4.630928496,111143,-1.842485441,15.21540689,-0.785272412,111143,0.127294634,-26.90946395,1.685740056,111143,2.697382558,60.91962745,0.971219768,111143,0.516548108,9.236731542,4.047250072,111143,-0.066466962,-128.3869213,-89.30896988
111147,111147,1.90602627,-10.90108303,-2.007155853,111147,0.138617146,6.654447011,0.116123827,111147,0.277778623,7.795571289,0.898710614,111147,-2.161810541,-6.381898426,1.816280163,111147,-0.385610226,-4.196381745,4.625306282,111147,-1.854436302,15.20175625,-0.761346566,111147,0.128309908,-26.90106517,1.67538985,111147,2.690075464,60.94574805,0.97180372,111147,0.519031331,9.242122803,4.033360095,111147,-0.073737683,-128.3891637,-89.31815091
111151,111151,1.88137437,-10.87984081,-1.990895537,111151,0.119330794,6.641370497,0.111198825,111151,0.297308025,7.80696637,0.887904929,111151,-2.185776071,-6.364527883,1.828435429,111151,-0.388678458,-4.195876482,4.626476623,111151,-1.865292449,15.18860169,-0.743349486,111151,0.134341772,-26.89013257,1.668100597,111151,2.680932836,60.9738181,0.971596218,111151,0.52605275,9.247466859,4.020568332,111151,-0.079619109,-128.3916829,-89.32885903
111155,111155,1.856664326,-10.85941061,-1.967239686,111155,0.103866132,6.627643359,0.112752756,111155,0.327240984,7.818262681,0.873537308,111155,-2.186118288,-6.361375394,1.828027284,111155,-0.397376447,-4.196600153,4.6292771,111155,-1.859917215,15.18875883,-0.737360705,111155,0.139129479,-26.88076854,1.662043278,111155,2.677372203,60.99840364,0.971986975,111155,0.529382094,9.250103321,4.010301966,111155,-0.083082842,-128.3902972,-89.33565452
111159,111159,1.838745352,-10.83969895,-1.942780349,111159,0.083789273,6.61348681,0.112869175,111159,0.34334935,7.837798439,0.851214954,111159,-2.193417807,-6.359882696,1.822257427,111159,-0.394295921,-4.203123901,4.626849164,111159,-1.849082594,15.19241012,-0.736486299,111159,0.139419477,-26.86900184,1.655707978,111159,2.675763042,61.02667733,0.969957805,111159,0.528414577,9.250501601,4.003466901,111159,-0.085050204,-128.3892964,-89.34310308
111163,111163,1.84366367,-10.83418288,-1.947746381,111163,0.070037047,6.604353656,0.118284532,111163,0.344201073,7.843636893,0.861117878,111163,-2.203270904,-6.361972555,1.819690241,111163,-0.399606939,-4.210367758,4.624464314,111163,-1.842154778,15.19830042,-0.730235607,111163,0.140183245,-26.85474589,1.658548421,111163,2.668859322,61.05576378,0.974262839,111163,0.526710974,9.25189935,3.999845591,111163,-0.085437225,-128.3883235,-89.34424038
111167,111167,1.837770969,-10.82976643,-1.955734017,111167,0.070576031,6.614368868,0.127632827,111167,0.3506222,7.848390251,0.872659684,111167,-2.192928076,-6.382992205,1.809797282,111167,-0.398224868,-4.217440967,4.623894404,111167,-1.83243922,15.20469679,-0.729682153,111167,0.135608236,-26.83844409,1.664713277,111167,2.665135344,61.08574345,0.976822426,111167,0.523859557,9.253940634,3.994869095,111167,-0.087287485,-128.3878928,-89.34672914
111171,111171,1.834006924,-10.82607879,-1.958406698,111171,0.071524148,6.623001963,0.140719604,111171,0.348238574,7.847033629,0.881128574,111171,-2.177601272,-6.405649459,1.798140964,111171,-0.394311785,-4.220792113,4.625573765,111171,-1.821927152,15.21240264,-0.733109534,111171,0.129491363,-26.82449494,1.674532068,111171,2.639234329,61.08855395,1.001954805,111171,0.514920197,9.241960685,4.005700974,111171,-0.083755901,-128.3712138,-89.33297059
111175,111175,1.831362098,-10.81996639,-1.963122024,111175,0.068850056,6.63298156,0.149772669,111175,0.34230113,7.847565869,0.894596809,111175,-2.167101541,-6.428568494,1.787158505,111175,-0.385877727,-4.225174057,4.627024096,111175,-1.809272805,15.21868155,-0.732528664,111175,0.116448332,-26.8090528,1.673385475,111175,2.618744898,61.09078931,1.023389293,111175,0.503507693,9.230650125,4.012570265,111175,-0.082274282,-128.3545392,-89.32131663
111179,111179,1.823166461,-10.80981287,-1.962246953,111179,0.06836187,6.642250438,0.157438202,111179,0.338126488,7.85035858,0.903976387,111179,-2.172910743,-6.439712499,1.782682168,111179,-0.375770738,-4.228140751,4.629078732,111179,-1.800756209,15.22514251,-0.732117707,111179,0.099697646,-26.79424089,1.673137198,111179,2.597043325,61.08917226,1.050470594,111179,0.495531985,9.217610479,4.018075129,111179,-0.08010283,-128.3359698,-89.3102127
111183,111183,1.838328651,-10.8063324,-1.966331442,111183,0.070789179,6.65272486,0.163152467,111183,0.315993921,7.85424345,0.910590381,111183,-2.179541728,-6.442958111,1.780500404,111183,-0.360655798,-4.232518273,4.62973015,111183,-1.794985263,15.22214063,-0.728321486,111183,0.09008461,-26.77479772,1.667984988,111183,2.58804521,61.09106133,1.064223696,111183,0.496652829,9.20948524,4.018186943,111183,-0.075667751,-128.3217798,-89.31265098
111187,111187,1.837867909,-10.80290726,-1.965923837,111187,0.072325164,6.661790485,0.161448943,111187,0.300003269,7.861036904,0.896297096,111187,-2.190693334,-6.444296225,1.782874105,111187,-0.344223699,-4.226525001,4.62529072,111187,-1.778946187,15.23055825,-0.734124802,111187,0.069477636,-26.76330798,1.658414531,111187,2.576358324,61.09453729,1.073936894,111187,0.484232574,9.189624138,4.02856521,111187,-0.07405681,-128.3080469,-89.31444961
111191,111191,1.819589906,-10.78854975,-1.952164649,111191,0.052369814,6.653588044,0.155713053,111191,0.306167785,7.8777668,0.868981597,111191,-2.193214025,-6.44510383,1.785733293,111191,-0.331115512,-4.218624017,4.623740046,111191,-1.758243616,15.23894439,-0.742584001,111191,0.048079873,-26.7524763,1.647951456,111191,2.566319403,61.09478169,1.092547745,111191,0.472261129,9.167875248,4.043892322,111191,-0.068899731,-128.2935861,-89.31622029
111195,111195,1.803742,-10.77176128,-1.93887355,111195,0.034162178,6.643635525,0.144083735,111195,0.308632405,7.891312183,0.852967641,111195,-2.195337519,-6.446405456,1.790815207,111195,-0.315178365,-4.211718688,4.629658866,111195,-1.739536008,15.2471356,-0.75456156,111195,0.029318054,-26.74177656,1.639724685,111195,2.55997095,61.09451916,1.108364837,111195,0.456311511,9.149459334,4.060238171,111195,-0.065681627,-128.2799582,-89.31492541
111199,111199,1.789247419,-10.75601046,-1.919084355,111199,0.026793963,6.633247059,0.127543534,111199,0.332470773,7.915476541,0.818443293,111199,-2.195659462,-6.44654311,1.80030792,111199,-0.329739445,-4.228738524,4.614685221,111199,-1.738653926,15.24405381,-0.758006475,111199,0.022358932,-26.71669143,1.624300443,111199,2.558377561,61.0994139,1.119357556,111199,0.461786986,9.148265034,4.065390833,111199,-0.058333316,-128.2727998,-89.32031547
111203,111203,1.785967862,-10.7418688,-1.898797253,111203,0.02076359,6.621709276,0.10801013,111203,0.345916662,7.937971798,0.776188905,111203,-2.193215903,-6.448778632,1.808937556,111203,-0.347404811,-4.247044631,4.591128078,111203,-1.736379604,15.24261848,-0.763017599,111203,0.01195896,-26.69481901,1.599942111,111203,2.555388545,61.10282267,1.125989354,111203,0.469194829,9.147926905,4.064993562,111203,-0.053751278,-128.2657501,-89.32726793
111207,111207,1.794599778,-10.7340666,-1.893382307,111207,0.043297986,6.613638669,0.107704071,111207,0.351176383,7.953560716,0.758169731,111207,-2.188447494,-6.445379378,1.817504053,111207,-0.364561895,-4.263068021,4.577246346,111207,-1.729426315,15.24065554,-0.767138732,111207,0.005101424,-26.67717706,1.577111337,111207,2.553601034,61.10263791,1.129375074,111207,0.475352769,9.144400796,4.065075874,111207,-0.050740872,-128.2563051,-89.33406723
111211,111211,1.793671634,-10.72841307,-1.883342221,111211,0.022498988,6.603433441,0.093228617,111211,0.352201804,7.95473212,0.739655881,111211,-2.173772682,-6.451834953,1.826310999,111211,-0.368183073,-4.26645711,4.567258357,111211,-1.714938539,15.24906912,-0.777957415,111211,-0.012376074,-26.66433331,1.558097737,111211,2.543147649,61.1012085,1.135897582,111211,0.47638091,9.140188706,4.06625128,111211,-0.048413428,-128.2451976,-89.33433744
111215,111215,1.788398981,-10.72337317,-1.887091189,111215,0.0005833,6.589186641,0.055039487,111215,0.36461256,7.955039112,0.732165052,111215,-2.161945632,-6.458786435,1.829858585,111215,-0.372590044,-4.268349422,4.561283157,111215,-1.702216167,15.26004291,-0.798485633,111215,-0.033261992,-26.658022,1.530648944,111215,2.543269352,61.11015044,1.118307372,111215,0.47585573,9.135425589,4.064746074,111215,-0.050146102,-128.2341826,-89.34026591
111219,111219,1.78347147,-10.7184395,-1.890308377,111219,-0.014801295,6.566591414,0.030432526,111219,0.370346786,7.954176145,0.730715037,111219,-2.151621066,-6.464694249,1.831483326,111219,-0.378503776,-4.268968754,4.55645428,111219,-1.693988976,15.27298742,-0.815102529,111219,-0.058709706,-26.65635768,1.508709269,111219,2.538992276,61.11883773,1.104138836,111219,0.474835711,9.129144076,4.063842481,111219,-0.052090268,-128.2224694,-89.33967929
111223,111223,1.778776177,-10.71426759,-1.893160455,111223,-0.019514319,6.551510987,0.022515539,111223,0.383060069,7.955446769,0.727167989,111223,-2.137758052,-6.476325848,1.830648087,111223,-0.383978138,-4.27053247,4.551956413,111223,-1.683789696,15.28648672,-0.831112382,111223,-0.084145251,-26.65570965,1.487800624,111223,2.535685356,61.12888906,1.092726104,111223,0.472069081,9.124410508,4.065992388,111223,-0.053251457,-128.2125677,-89.33939138
111227,111227,1.772285559,-10.70890886,-1.911933081,111227,-0.018418637,6.536962434,0.015013683,111227,0.401356337,7.96131488,0.729322218,111227,-2.143025674,-6.474921804,1.834200211,111227,-0.405109752,-4.28870774,4.533763891,111227,-1.705971433,15.2749673,-0.826143741,111227,-0.109824503,-26.66842391,1.482385257,111227,2.52357618,61.12781239,1.08304767,111227,0.481307783,9.125674096,4.059074502,111227,-0.05391745,-128.1960928,-89.33607617
111231,111231,1.766267201,-10.702269,-1.929787166,111231,-0.02641481,6.52363603,0.002804021,111231,0.415902707,7.9676241,0.729516798,111231,-2.151601079,-6.472822636,1.833772358,111231,-0.421525686,-4.305854549,4.512845282,111231,-1.733797756,15.26305642,-0.822337258,111231,-0.136226136,-26.68101195,1.47615278,111231,2.512638947,61.12885991,1.075861381,111231,0.486744749,9.12848886,4.054535662,111231,-0.055410642,-128.1816069,-89.32907397
111235,111235,1.766626849,-10.69569451,-1.951425226,111235,-0.023127802,6.508255283,-0.002332834,111235,0.427119168,7.97557136,0.737142897,111235,-2.151392769,-6.469464134,1.835378936,111235,-0.439958832,-4.324570899,4.496564901,111235,-1.756412577,15.25102968,-0.815950411,111235,-0.157156437,-26.69347105,1.47522114,111235,2.501804563,61.13112359,1.075066854,111235,0.493980333,9.132526545,4.051644913,111235,-0.054158441,-128.1680151,-89.32302361
111239,111239,1.770830922,-10.69041516,-1.974427823,111239,-0.020060907,6.493492113,-0.003646624,111239,0.451598953,7.991250943,0.741961761,111239,-2.135548939,-6.476067686,1.832098637,111239,-0.473159609,-4.351143441,4.478014194,111239,-1.763108409,15.24856745,-0.81817995,111239,-0.185310233,-26.71248636,1.479884562,111239,2.485133707,61.1285051,1.076679241,111239,0.49355605,9.131603116,4.054572808,111239,-0.054415319,-128.1487784,-89.30793601
111243,111243,1.771939432,-10.68216892,-2.010597783,111243,-0.016679785,6.479199997,-0.001175962,111243,0.474425192,8.009959863,0.749544074,111243,-2.124455082,-6.483725444,1.825281106,111243,-0.487995378,-4.363263737,4.462149583,111243,-1.753062627,15.26061085,-0.828957146,111243,-0.198581038,-26.72855853,1.480053322,111243,2.480907595,61.13493665,1.072250839,111243,0.4794384,9.117525777,4.067963664,111243,-0.053570266,-128.1307224,-89.29630831
111247,111247,1.769455167,-10.67566267,-2.035122559,111247,-0.00945676,6.467112616,3.50E-05,111247,0.50129702,8.025884343,0.756746508,111247,-2.111384944,-6.490554293,1.82632852,111247,-0.505071322,-4.376636665,4.450681986,111247,-1.743693325,15.2705411,-0.832192316,111247,-0.203866681,-26.74537677,1.480837662,111247,2.479409495,61.14188955,1.07019269,111247,0.467643384,9.105650422,4.08325971,111247,-0.04948197,-128.1133073,-89.28527437
111251,111251,1.764417733,-10.66271285,-2.057632092,111251,-0.022511604,6.451902147,0.002204821,111251,0.52223897,8.043410769,0.762304523,111251,-2.109226721,-6.493479407,1.826217091,111251,-0.511583869,-4.389031666,4.438331162,111251,-1.727446109,15.28095807,-0.833445463,111251,-0.208822641,-26.76012337,1.483950154,111251,2.480512646,61.14681323,1.064947441,111251,0.449489012,9.093161152,4.099445908,111251,-0.045811848,-128.0956772,-89.27318006
111255,111255,1.76788872,-10.64868879,-2.073622822,111255,-0.035105042,6.436133149,0.005553018,111255,0.520860748,8.049690231,0.777607935,111255,-2.117106964,-6.495356149,1.828980988,111255,-0.516142254,-4.398791858,4.436544511,111255,-1.732783108,15.28135289,-0.826401803,111255,-0.209548006,-26.77665071,1.495215932,111255,2.469820066,61.14785943,1.071447308,111255,0.445350526,9.08869516,4.112098429,111255,-0.041962468,-128.0771747,-89.25902782
111259,111259,1.772359766,-10.63401164,-2.090413056,111259,-0.038758389,6.426461176,0.024450362,111259,0.51719923,8.055809436,0.79456285,111259,-2.118722597,-6.499288696,1.822334123,111259,-0.519103428,-4.408647779,4.431497795,111259,-1.73174826,15.28093899,-0.817123252,111259,-0.212789647,-26.7899299,1.501140467,111259,2.45971836,61.15000003,1.081458706,111259,0.437460201,9.087066754,4.124663303,111259,-0.039224632,-128.0599848,-89.24359948
111263,111263,1.761463883,-10.61395418,-2.10575775,111263,-0.027740498,6.423082246,0.04102469,111263,0.526047121,8.064777565,0.807701637,111263,-2.112476993,-6.508956726,1.821400039,111263,-0.522408629,-4.416811896,4.42515905,111263,-1.732477898,15.28115962,-0.798290172,111263,-0.210858066,-26.80371296,1.503399399,111263,2.454740725,61.14941226,1.092704173,111263,0.435244897,9.083564061,4.134691147,111263,-0.033623483,-128.0420915,-89.2312602
111267,111267,1.763586318,-10.59717797,-2.127160277,111267,-0.018350777,6.420065201,0.055441931,111267,0.514775277,8.07068462,0.82527434,111267,-2.109085271,-6.518243287,1.823374084,111267,-0.514376634,-4.421370469,4.421328391,111267,-1.736723271,15.2802236,-0.776172445,111267,-0.198197115,-26.80971928,1.510214624,111267,2.439990963,61.14248015,1.117956662,111267,0.441605047,9.086611898,4.143251227,111267,-0.022552346,-128.0303738,-89.22762271
111271,111271,1.767633008,-10.57844678,-2.147320194,111271,-0.019586166,6.416469663,0.071292462,111271,0.502293818,8.075993122,0.83933265,111271,-2.109137834,-6.527270236,1.822133193,111271,-0.497548235,-4.417869209,4.418422185,111271,-1.728083435,15.28563298,-0.761756714,111271,-0.19305652,-26.81817068,1.511032947,111271,2.429231894,61.13271656,1.134957533,111271,0.436749414,9.082563453,4.15368021,111271,-0.016104118,-128.0178992,-89.22372572
111275,111275,1.762149476,-10.55975074,-2.174800392,111275,-0.030111253,6.406459873,0.091484351,111275,0.501730997,8.08115279,0.859771446,111275,-2.108482334,-6.537482195,1.817621901,111275,-0.487046265,-4.412872514,4.418026039,111275,-1.723548386,15.2929915,-0.750201152,111275,-0.185435359,-26.82663881,1.517396357,111275,2.417450122,61.12029707,1.151374592,111275,0.439121895,9.074908889,4.168527991,111275,-0.005422538,-128.0036815,-89.22163505
111279,111279,1.767969621,-10.5440996,-2.210500379,111279,-0.052676399,6.390148975,0.09944133,111279,0.498620495,8.085539939,0.88943211,111279,-2.120027329,-6.540259417,1.818008958,111279,-0.473203247,-4.408908707,4.420875964,111279,-1.712250874,15.2982765,-0.740170033,111279,-0.183956163,-26.83541659,1.526171919,111279,2.402821711,61.10590343,1.167724634,111279,0.439471091,9.067442962,4.185673874,111279,0.007035891,-127.9881629,-89.21719541
111283,111283,1.766722341,-10.5263665,-2.246027236,111283,-0.077053673,6.373271056,0.101125021,111283,0.497981196,8.085160943,0.916842727,111283,-2.12807257,-6.542887532,1.823268619,111283,-0.448279255,-4.394826714,4.4251598,111283,-1.692664872,15.30597912,-0.737784224,111283,-0.173591048,-26.8373912,1.517061615,111283,2.410094276,61.10440159,1.163339275,111283,0.438489554,9.060554687,4.200208494,111283,0.01665845,-127.9765127,-89.22089912
111287,111287,1.764605802,-10.50758961,-2.279350226,111287,-0.087359436,6.364962146,0.103937354,111287,0.494911704,8.082934163,0.95046434,111287,-2.1276474,-6.54489634,1.828147206,111287,-0.419037738,-4.37958666,4.431227156,111287,-1.670135095,15.31059403,-0.734391154,111287,-0.163365438,-26.83823031,1.515405193,111287,2.419022972,61.10258084,1.15833423,111287,0.439393954,9.054689386,4.212156517,111287,0.026401132,-127.9648807,-89.22467824
111291,111291,1.739130063,-10.48628838,-2.313962093,111291,-0.088633831,6.358126357,0.103618442,111291,0.499463773,8.078460816,0.971443772,111291,-2.119909499,-6.548588291,1.837667022,111291,-0.39035485,-4.365333108,4.42384906,111291,-1.644471362,15.31506573,-0.733539616,111291,-0.157688485,-26.83988764,1.511136238,111291,2.426209259,61.09945569,1.149560324,111291,0.43671881,9.04964902,4.225778274,111291,0.036064136,-127.9533064,-89.22740921
111295,111295,1.698874065,-10.46011823,-2.335271401,111295,-0.087595918,6.351599299,0.108942651,111295,0.499139183,8.087541785,0.97151739,111295,-2.113094796,-6.547631288,1.846066195,111295,-0.369426484,-4.359914474,4.403972584,111295,-1.625035388,15.31489828,-0.731221284,111295,-0.158495102,-26.84362712,1.506652062,111295,2.416254814,61.08544015,1.14695099,111295,0.43373919,9.043574434,4.234738488,111295,0.042211886,-127.9409327,-89.23189975
111299,111299,1.671468882,-10.43133225,-2.35317994,111299,-0.088136602,6.345761199,0.108424965,111299,0.481222965,8.096729075,0.962567387,111299,-2.113205778,-6.547289272,1.852417644,111299,-0.361083998,-4.36532014,4.371878088,111299,-1.626729546,15.30475938,-0.724011935,111299,-0.151930481,-26.84734245,1.501714452,111299,2.40832183,61.0715179,1.145913298,111299,0.446908314,9.047656362,4.234059452,111299,0.051163751,-127.9279971,-89.23875814
111303,111303,1.642957177,-10.39467069,-2.35675026,111303,-0.089620165,6.337829008,0.100906453,111303,0.473589598,8.112466468,0.938269321,111303,-2.118752853,-6.545554482,1.861669123,111303,-0.358919214,-4.36894899,4.342768945,111303,-1.636781268,15.29458614,-0.714402551,111303,-0.139604355,-26.85498885,1.494190879,111303,2.403747453,61.05619284,1.139841749,111303,0.46685673,9.049028773,4.232986967,111303,0.061182362,-127.9126883,-89.24823668
111307,111307,1.620623731,-10.3635111,-2.35199619,111307,-0.092257361,6.332330105,0.089575748,111307,0.469446511,8.129060701,0.90466641,111307,-2.123678247,-6.546025399,1.868990567,111307,-0.358007756,-4.370781671,4.313510375,111307,-1.645284374,15.28531588,-0.708340118,111307,-0.139837633,-26.86516419,1.491540024,111307,2.39840694,61.04058922,1.14202307,111307,0.47809319,9.049380965,4.237622061,111307,0.072662475,-127.8968744,-89.25010185
111311,111311,1.615399852,-10.33116113,-2.327517523,111311,-0.088547759,6.325896837,0.080337573,111311,0.442094799,8.133157086,0.867646786,111311,-2.141737751,-6.53559217,1.874959795,111311,-0.349469435,-4.356545255,4.298329159,111311,-1.668679727,15.26908915,-0.702786469,111311,-0.143168392,-26.87742497,1.486994835,111311,2.388969476,61.02738235,1.143248273,111311,0.482149911,9.044320523,4.245782636,111311,0.082485742,-127.8778453,-89.24728539
111315,111315,1.614946293,-10.3026441,-2.29540743,111315,-0.074769685,6.320907499,0.079024455,111315,0.417566485,8.135020126,0.829971502,111315,-2.159310524,-6.52544671,1.884101322,111315,-0.341352145,-4.344047504,4.289043954,111315,-1.691027449,15.25242756,-0.693844922,111315,-0.150721024,-26.89079483,1.48443082,111315,2.380253848,61.01458967,1.135530833,111315,0.48396503,9.040104412,4.255190786,111315,0.092622971,-127.8589253,-89.24342655
111319,111319,1.636968919,-10.28446893,-2.268865691,111319,-0.06013759,6.318895058,0.078164015,111319,0.386040049,8.12305357,0.812716763,111319,-2.177793803,-6.515331736,1.892025805,111319,-0.347979042,-4.333114847,4.289953861,111319,-1.721906667,15.23482629,-0.685182501,111319,-0.158187392,-26.90786515,1.47763883,111319,2.375046918,61.00436669,1.132201698,111319,0.488300808,9.034749646,4.261578629,111319,0.100085385,-127.838999,-89.24237048
111323,111323,1.661647846,-10.27059743,-2.233231417,111323,-0.045100593,6.314809987,0.070825656,111323,0.362695945,8.124575276,0.774893283,111323,-2.19128823,-6.507455293,1.900042531,111323,-0.36295636,-4.339240006,4.285371889,111323,-1.748784478,15.2200221,-0.67998545,111323,-0.155063119,-26.91865623,1.467367366,111323,2.376850563,61.00004237,1.121135766,111323,0.497235523,9.035460974,4.260362953,111323,0.103684075,-127.8247191,-89.25127411
111327,111327,1.677531927,-10.25816435,-2.191687536,111327,-0.029364046,6.31118446,0.06651644,111327,0.340223556,8.125689885,0.740651415,111327,-2.200956374,-6.500337013,1.905048781,111327,-0.374585648,-4.340434466,4.294410649,111327,-1.768465209,15.21014092,-0.67644788,111327,-0.155105718,-26.93032044,1.452830568,111327,2.377471185,60.99510375,1.118873225,111327,0.499750448,9.030941276,4.266219823,111327,0.10746361,-127.8098319,-89.25699006
111331,111331,1.676902998,-10.23798989,-2.139338571,111331,-0.02028431,6.303167714,0.064534349,111331,0.329573212,8.134351191,0.703102632,111331,-2.211200801,-6.49015143,1.916623409,111331,-0.392275292,-4.344053799,4.310380849,111331,-1.790702897,15.19868837,-0.664956544,111331,-0.155969922,-26.94215996,1.443086017,111331,2.378151881,60.99138687,1.115294956,111331,0.502968152,9.028697269,4.271400939,111331,0.108758536,-127.7964109,-89.2597397
111335,111335,1.689924311,-10.22603801,-2.091677625,111335,-0.008360976,6.291247209,0.072967946,111335,0.31933627,8.141400178,0.669030484,111335,-2.206643832,-6.484739184,1.920598509,111335,-0.412204787,-4.348050948,4.331758181,111335,-1.794856312,15.19430316,-0.661228687,111335,-0.154659344,-26.95292536,1.428067693,111335,2.377474153,60.99036553,1.11402026,111335,0.50219298,9.030033248,4.272244781,111335,0.105040842,-127.7867779,-89.26299344
111339,111339,1.703053164,-10.21559667,-2.047070215,111339,0.005888468,6.278872469,0.075668128,111339,0.303527131,8.132960491,0.662276348,111339,-2.200635869,-6.480376888,1.92949846,111339,-0.422114539,-4.338619173,4.374874512,111339,-1.800086143,15.18995184,-0.655629374,111339,-0.154998345,-26.96502891,1.42444288,111339,2.377627744,60.99387369,1.114696536,111339,0.503917573,9.033840372,4.279678426,111339,0.10737366,-127.7782962,-89.26245069
111343,111343,1.721352477,-10.20699454,-2.001449615,111343,0.0096568,6.260292427,0.072978044,111343,0.280017645,8.124749367,0.667245872,111343,-2.193118552,-6.476120708,1.93516038,111343,-0.427726372,-4.331467382,4.430261386,111343,-1.809434723,15.18597616,-0.654212143,111343,-0.155449088,-26.97681896,1.411159343,111343,2.379386161,60.99773761,1.115058601,111343,0.507535991,9.039824391,4.283764096,111343,0.105784938,-127.7713431,-89.26331882
111347,111347,1.74262227,-10.20077561,-1.958608701,111347,0.021636632,6.244832524,0.077575372,111347,0.255173593,8.110911494,0.682576081,111347,-2.176758443,-6.479420019,1.933341149,111347,-0.43919151,-4.322337587,4.495565827,111347,-1.818399334,15.1873217,-0.656702168,111347,-0.152473476,-26.98845067,1.404567882,111347,2.3717409,61.00126877,1.120372862,111347,0.512898477,9.044796424,4.296676585,111347,0.10890523,-127.7654076,-89.26014474
111351,111351,1.759320314,-10.1975889,-1.922536666,111351,0.02647098,6.230862586,0.083060552,111351,0.2496135,8.105376791,0.69850131,111351,-2.16524822,-6.481041403,1.933136796,111351,-0.463130987,-4.325646584,4.552705533,111351,-1.830165982,15.18580403,-0.652269042,111351,-0.152757255,-27.00436019,1.400640296,111351,2.356974049,60.99125005,1.137620035,111351,0.517273773,9.046272197,4.307760638,111351,0.112493545,-127.7551741,-89.25722736
111355,111355,1.774876324,-10.19571427,-1.889627392,111355,0.032440516,6.217445338,0.084894321,111355,0.247611584,8.099596206,0.706655232,111355,-2.167572935,-6.48347152,1.936798078,111355,-0.488637006,-4.328719067,4.604470034,111355,-1.84986996,15.18581892,-0.650215252,111355,-0.14304877,-27.02053242,1.390489188,111355,2.340361822,60.97788906,1.15100589,111355,0.524725607,9.046561785,4.320261502,111355,0.113691032,-127.7447894,-89.25771958
111359,111359,1.793139043,-10.19309922,-1.862134117,111359,0.051083749,6.213492571,0.089008036,111359,0.248193833,8.094878133,0.715853354,111359,-2.164907819,-6.485526772,1.944025569,111359,-0.508314776,-4.33117019,4.651011074,111359,-1.861315187,15.18631407,-0.648145092,111359,-0.132085501,-27.03620447,1.385356512,111359,2.328020829,60.96475638,1.155290293,111359,0.526926963,9.047198413,4.332646809,111359,0.114089284,-127.7349892,-89.25618974
111363,111363,1.8088394,-10.19247834,-1.833844505,111363,0.064805706,6.205424976,0.087530099,111363,0.244532225,8.088696843,0.72030765,111363,-2.173743086,-6.485124369,1.958343803,111363,-0.52141704,-4.332743757,4.694809847,111363,-1.876377708,15.1878073,-0.64040992,111363,-0.127878292,-27.05393002,1.38264098,111363,2.318881556,60.94781544,1.167054981,111363,0.524568599,9.045773048,4.343402779,111363,0.111790182,-127.7231008,-89.25197268
111367,111367,1.818296449,-10.19293115,-1.813964854,111367,0.07287037,6.198386555,0.088347323,111367,0.243086962,8.077954952,0.727458816,111367,-2.188221408,-6.48465862,1.975146136,111367,-0.529084457,-4.331403573,4.73407282,111367,-1.893031576,15.18852309,-0.631188932,111367,-0.124804233,-27.06912269,1.368765342,111367,2.320227379,60.94114023,1.160324578,111367,0.52199944,9.044856522,4.350365942,111367,0.105459205,-127.7113822,-89.24933713
111371,111371,1.817198027,-10.19301059,-1.802874894,111371,0.078360586,6.187565716,0.083140413,111371,0.239281872,8.068050011,0.745469266,111371,-2.193420856,-6.487551153,1.986088174,111371,-0.520452994,-4.329684527,4.775620955,111371,-1.90132492,15.19047699,-0.626162929,111371,-0.122091896,-27.08288232,1.365660776,111371,2.32577493,60.93123765,1.153916138,111371,0.516239856,9.043884368,4.362271842,111371,0.103475829,-127.6999082,-89.24429902
111375,111375,1.831869015,-10.192088,-1.781836645,111375,0.08129872,6.177043498,0.083561151,111375,0.223917776,8.058212369,0.751448982,111375,-2.200310699,-6.489255816,1.999187777,111375,-0.514603658,-4.329354893,4.807531924,111375,-1.916386423,15.19155509,-0.616424563,111375,-0.111510255,-27.09368906,1.364918785,111375,2.333280175,60.92392557,1.143849201,111375,0.517733013,9.044634995,4.371398606,111375,0.101712342,-127.6905101,-89.2425838
111379,111379,1.851363346,-10.19059301,-1.760732383,111379,0.084452996,6.168456463,0.07877697,111379,0.222253511,8.062630645,0.742209466,111379,-2.208959738,-6.497065901,2.019374478,111379,-0.520939757,-4.341450163,4.826437574,111379,-1.925790727,15.19850435,-0.604958499,111379,-0.104870797,-27.10613976,1.358743363,111379,2.351063432,60.92153325,1.1206663,111379,0.515532399,9.042535806,4.376404487,111379,0.098245541,-127.6793245,-89.24516992
111383,111383,1.853539559,-10.19032339,-1.7559202,111383,0.089444039,6.158606551,0.079893648,111383,0.232458184,8.066366782,0.743237083,111383,-2.215106581,-6.503037421,2.034433069,111383,-0.530652492,-4.356798366,4.842470478,111383,-1.93294952,15.2012126,-0.590733022,111383,-0.090687718,-27.11408702,1.356570933,111383,2.37466381,60.92079727,1.096519849,111383,0.5182916,9.044845531,4.379182197,111383,0.097802314,-127.6701351,-89.25098644
111387,111387,1.859209801,-10.19900292,-1.765549584,111387,0.088521131,6.148502972,0.08649811,111387,0.232029416,8.061802374,0.751800339,111387,-2.224455011,-6.50740287,2.048306207,111387,-0.539555288,-4.372744805,4.855785683,111387,-1.943821389,15.20263199,-0.573973093,111387,-0.066765026,-27.12069164,1.352757153,111387,2.409806651,60.91872233,1.070494486,111387,0.527348881,9.046736477,4.385361002,111387,0.102609875,-127.6610612,-89.26006143
111391,111391,1.868640233,-10.21139808,-1.770652557,111391,0.089045088,6.142416047,0.091714742,111391,0.238035001,8.056398439,0.75328815,111391,-2.220779009,-6.513431802,2.053263485,111391,-0.55334897,-4.388506809,4.865671583,111391,-1.943921691,15.20169474,-0.562315421,111391,-0.041427323,-27.12108321,1.348719997,111391,2.446167511,60.92021766,1.047472613,111391,0.538299232,9.051338167,4.387817885,111391,0.108930551,-127.655363,-89.27364477
111395,111395,1.872528335,-10.22453051,-1.773296965,111395,0.088203662,6.13667921,0.097945758,111395,0.21869693,8.036485053,0.766264032,111395,-2.219248786,-6.518196178,2.056322552,111395,-0.533985404,-4.382932708,4.887193958,111395,-1.935415259,15.20593815,-0.55893361,111395,-0.017968365,-27.12453614,1.347941403,111395,2.467555903,60.9060967,1.029883242,111395,0.542964304,9.048118385,4.395851581,111395,0.113704887,-127.6483832,-89.28782241
111399,111399,1.850276194,-10.21878585,-1.764197834,111399,0.090115115,6.134652981,0.113801698,111399,0.225916769,8.035421498,0.761022057,111399,-2.216249344,-6.522905374,2.057541922,111399,-0.51507565,-4.378731303,4.910563123,111399,-1.925249618,15.20937642,-0.556050788,111399,0.004094497,-27.12623834,1.351906121,111399,2.485237757,60.89371203,1.008542083,111399,0.549647403,9.044089189,4.405694883,111399,0.121705274,-127.6408545,-89.30159511
111403,111403,1.837067767,-10.21705599,-1.753626866,111403,0.080971437,6.126732994,0.127416725,111403,0.229374067,8.033995999,0.749046439,111403,-2.217324408,-6.521156418,2.055968821,111403,-0.489810603,-4.374710475,4.931894822,111403,-1.904199272,15.21132292,-0.564796308,111403,0.024118479,-27.12744172,1.357668052,111403,2.500860488,60.88150628,0.9954345,111403,0.549598004,9.039723318,4.424068885,111403,0.13165663,-127.6325188,-89.31037133
111407,111407,1.830430963,-10.21796062,-1.759097779,111407,0.076445858,6.118965512,0.140394254,111407,0.253289955,8.043688954,0.743530566,111407,-2.205533487,-6.527030242,2.052074659,111407,-0.483009039,-4.383553683,4.944782273,111407,-1.873613149,15.22067035,-0.575342068,111407,0.047907372,-27.11660068,1.356882885,111407,2.519352138,60.87355182,0.977801388,111407,0.555310624,9.043441588,4.434274587,111407,0.140823264,-127.6332974,-89.3267039
111411,111411,1.83604306,-10.22123191,-1.76379071,111411,0.069072529,6.111738469,0.145335531,111411,0.260144165,8.052161161,0.739838459,111411,-2.194070487,-6.530916767,2.052575028,111411,-0.47914348,-4.39744415,4.954809611,111411,-1.84750333,15.22432814,-0.583688833,111411,0.09139032,-27.09776408,1.342870577,111411,2.536738306,60.86621659,0.963583927,111411,0.570752119,9.04943044,4.438909895,111411,0.149532206,-127.6330463,-89.34532384
111415,111415,1.851004711,-10.2370366,-1.776043661,111415,0.048318883,6.102396843,0.143658529,111415,0.252830415,8.049279555,0.743748958,111415,-2.182325071,-6.53304438,2.050130798,111415,-0.475101123,-4.410668196,4.960549644,111415,-1.819048769,15.22625597,-0.596913504,111415,0.123238633,-27.07969902,1.328402831,111415,2.552090056,60.86018126,0.943439746,111415,0.58247229,9.053049389,4.444944395,111415,0.156114035,-127.631071,-89.36083992
111419,111419,1.856599726,-10.24716839,-1.783340787,111419,0.031733165,6.098343405,0.1429343,111419,0.255583198,8.048370674,0.753162567,111419,-2.184822753,-6.525240575,2.05422916,111419,-0.481955588,-4.427437549,4.97443004,111419,-1.807001933,15.21339185,-0.602541065,111419,0.121806997,-27.08343273,1.33053869,111419,2.543776899,60.83173895,0.948243147,111419,0.572429424,9.034459327,4.464146397,111419,0.160913236,-127.6044714,-89.34940793
111423,111423,1.868472762,-10.25613654,-1.794631887,111423,0.011938098,6.095798244,0.13718755,111423,0.23636801,8.038742171,0.770883981,111423,-2.189902118,-6.516259137,2.065114118,111423,-0.465316315,-4.431606186,4.988725364,111423,-1.791887553,15.20127496,-0.608348926,111423,0.104118089,-27.09308677,1.335148301,111423,2.528253339,60.80700009,0.951233702,111423,0.554147562,9.013390599,4.484602501,111423,0.162281634,-127.5780739,-89.33576196
111427,111427,1.883048828,-10.26338654,-1.805787746,111427,0.013167406,6.100110549,0.128193086,111427,0.221211913,8.032245616,0.780817751,111427,-2.190802275,-6.506167448,2.083200124,111427,-0.456326786,-4.433160158,4.993560463,111427,-1.780498911,15.19084078,-0.610758725,111427,0.093586456,-27.10134226,1.336511289,111427,2.510175497,60.78578564,0.957433187,111427,0.53939419,8.990853557,4.497204162,111427,0.161140913,-127.5528659,-89.32735076
111431,111431,1.885860868,-10.26224403,-1.812849103,111431,0.016066376,6.103598279,0.111768186,111431,0.214974942,8.024795402,0.790366331,111431,-2.188175599,-6.494646839,2.109289952,111431,-0.448854604,-4.432456731,4.997776793,111431,-1.767917384,15.18064122,-0.609536075,111431,0.082538056,-27.10897301,1.343391483,111431,2.493796584,60.76690704,0.965099127,111431,0.524298653,8.968966131,4.511794657,111431,0.163217783,-127.5284816,-89.31739352
111435,111435,1.883347576,-10.26029039,-1.823758414,111435,0.019412392,6.105474286,0.0923023,111435,0.221420373,8.020928492,0.804573722,111435,-2.17938886,-6.490786424,2.132996963,111435,-0.451750596,-4.434434212,5.008943935,111435,-1.749705688,15.17778172,-0.616595591,111435,0.083675785,-27.09440119,1.334292074,111435,2.49380352,60.77871596,0.958313326,111435,0.525508641,8.967567476,4.515514498,111435,0.163727368,-127.5255816,-89.32660533
111439,111439,1.874556611,-10.25794139,-1.838736063,111439,0.021989248,6.107599424,0.072931092,111439,0.235423253,8.018909119,0.825069898,111439,-2.182756289,-6.484882002,2.154586186,111439,-0.465053217,-4.440324335,5.018775538,111439,-1.745900947,15.17175619,-0.61719477,111439,0.08357045,-27.07465049,1.329734171,111439,2.499909998,60.79529007,0.954792027,111439,0.53493372,8.970350154,4.514563613,111439,0.167200197,-127.5249283,-89.3357155
111443,111443,1.853336637,-10.24344224,-1.84581281,111443,0.026454654,6.108667404,0.056718193,111443,0.259477002,8.029074777,0.844047167,111443,-2.18748115,-6.478008187,2.172148202,111443,-0.475748299,-4.445360264,5.034093656,111443,-1.747174491,15.16743111,-0.62319317,111443,0.084605685,-27.05419484,1.322763778,111443,2.505890622,60.81438315,0.953647417,111443,0.543062101,8.972202265,4.517029942,111443,0.170168674,-127.5247632,-89.34376122
111447,111447,1.842914289,-10.22744492,-1.853040594,111447,0.03423222,6.112065363,0.04286938,111447,0.271991334,8.02735951,0.862856267,111447,-2.195779499,-6.472198174,2.184494894,111447,-0.480266271,-4.4385165,5.047526234,111447,-1.754527346,15.16093321,-0.628799567,111447,0.081781103,-27.0377823,1.323709191,111447,2.513425569,60.83150931,0.966660285,111447,0.545238063,8.973196255,4.523623505,111447,0.175213083,-127.5221438,-89.34475927
111451,111451,1.826427092,-10.20964479,-1.857953523,111451,0.041921452,6.11415249,0.03039076,111451,0.292874486,8.027530511,0.882616553,111451,-2.203007551,-6.466098017,2.190116854,111451,-0.49111222,-4.43166505,5.064105239,111451,-1.765982035,15.154274,-0.638670934,111451,0.074824122,-27.01858099,1.320857009,111451,2.522909011,60.85032552,0.976411587,111451,0.552182029,8.97735444,4.523355641,111451,0.177327149,-127.5223497,-89.34949033
111455,111455,1.805184992,-10.19808401,-1.862259136,111455,0.045002378,6.114194309,0.020146939,111455,0.301820387,8.022714058,0.902097408,111455,-2.21524457,-6.461930609,2.190953373,111455,-0.50189547,-4.423448965,5.083793309,111455,-1.783012097,15.14987376,-0.655566043,111455,0.074307021,-26.99927955,1.328139678,111455,2.537328399,60.8697734,0.995611239,111455,0.563667191,8.981021836,4.536715182,111455,0.188593965,-127.522988,-89.350879
111459,111459,1.803478632,-10.18895344,-1.872410881,111459,0.055027432,6.120004264,0.010931954,111459,0.298073602,8.019043366,0.925333836,111459,-2.218004199,-6.464000781,2.190565136,111459,-0.511735813,-4.41487809,5.102077696,111459,-1.798393567,15.14604017,-0.670514531,111459,0.07546779,-26.97922529,1.334222345,111459,2.551710529,60.88951475,1.011737387,111459,0.574428988,8.985652123,4.54530576,111459,0.198103576,-127.5247159,-89.35377333
111463,111463,1.803322147,-10.17945976,-1.884448161,111463,0.068281438,6.126547307,0.004000238,111463,0.323356152,8.044210201,0.928546837,111463,-2.216034748,-6.467080702,2.186798632,111463,-0.548752486,-4.435102003,5.100654332,111463,-1.813566185,15.14320069,-0.686905324,111463,0.084127208,-26.95557244,1.337292975,111463,2.582111417,60.91673948,1.015393892,111463,0.592735395,8.993553165,4.544509444,111463,0.205183157,-127.5304152,-89.36722405
111467,111467,1.813481082,-10.17025138,-1.887891484,111467,0.083147464,6.132656085,-0.007420286,111467,0.33552521,8.068174018,0.926550064,111467,-2.215529636,-6.471035413,2.184654418,111467,-0.579440799,-4.452583617,5.096462479,111467,-1.828417893,15.14262208,-0.701050778,111467,0.087373328,-26.93088932,1.336869225,111467,2.604427911,60.94221799,1.020504857,111467,0.603905532,9.000934273,4.544584429,111467,0.20970098,-127.535951,-89.37474971
111471,111471,1.83269919,-10.16971895,-1.89479473,111471,0.095927032,6.13979601,-0.017167215,111471,0.340022794,8.083561752,0.930321114,111471,-2.20867224,-6.473979296,2.176174025,111471,-0.610742484,-4.470088609,5.09707408,111471,-1.841871781,15.1410631,-0.722763854,111471,0.085352883,-26.90558745,1.341931549,111471,2.625414625,60.96720032,1.028698048,111471,0.616999191,9.009563733,4.549717075,111471,0.217276106,-127.5426758,-89.38164069
111475,111475,1.852130388,-10.17598815,-1.91257173,111475,0.110472827,6.147644618,-0.022833698,111475,0.33010943,8.082643176,0.947649433,111475,-2.202832108,-6.477458581,2.157789988,111475,-0.625225531,-4.471716278,5.101197304,111475,-1.859967096,15.13938521,-0.746412688,111475,0.077075061,-26.88874309,1.35905047,111475,2.646666416,60.98931141,1.032950593,111475,0.62311895,9.008453762,4.559245859,111475,0.225888645,-127.5399999,-89.37837701
111479,111479,1.864963511,-10.18099266,-1.929032125,111479,0.125175699,6.153980235,-0.028310669,111479,0.315857982,8.079640482,0.960101521,111479,-2.203455805,-6.481083426,2.138326867,111479,-0.623229742,-4.467310218,5.107901623,111479,-1.876633293,15.14362312,-0.775135025,111479,0.064227183,-26.87569454,1.372814646,111479,2.668715435,61.00979254,1.033721808,111479,0.622160025,9.00355424,4.571832452,111479,0.23211095,-127.5370354,-89.3756963
111483,111483,1.87949805,-10.18383765,-1.937642435,111483,0.136486854,6.162836238,-0.032139097,111483,0.309023753,8.079244756,0.96279494,111483,-2.205285183,-6.486832294,2.112646665,111483,-0.624062398,-4.462613044,5.111364946,111483,-1.890627973,15.14936293,-0.808845072,111483,0.051838296,-26.8623123,1.390941454,111483,2.688069621,61.02851544,1.033470999,111483,0.622016362,8.998589198,4.584596569,111483,0.240422107,-127.5333143,-89.3738272
